7415 50
, -0.0038611 0.028277 0.020219 -0.0013301 0.013524 -0.05053 -0.02714 0.045966 -0.024198 0.067871 0.024721 0.0078446 0.027758 -0.049921 0.0088983 -0.0087998 -0.0011906 -0.028644 0.015443 0.020976 0.015688 0.026658 -0.010542 -0.017122 -0.0060751 0.05461 -0.0068203 -0.0071621 -0.022955 0.0049507 0.0061531 0.04826 0.061159 0.014396 0.0029177 0.0067971 0.026303 -0.047353 0.026787 -0.0073689 0.023358 0.0036592 -0.0027189 0.0071931 0.025446 -0.015728 0.059269 -0.062442 0.025107 0.023709 
的 0.0012869 0.017909 0.0029883 0.0020889 0.00016115 -0.039523 -0.018121 0.027538 -0.0054819 0.032841 0.010315 0.012239 0.015415 -0.0077378 -0.0035792 0.003661 -0.0076869 -0.014085 0.015391 0.012319 -0.0040525 0.015767 -0.014128 -0.0013534 -0.010622 0.022916 0.011385 0.0030983 -0.015209 -0.0027729 -0.0045227 0.0247 0.033154 -0.0034894 0.0017924 -0.00075116 0.014048 -0.026419 0.014923 -0.0042127 0.0179 0.0073627 0.0041849 -0.016025 0.023057 -0.013259 0.034373 -0.023627 0.010545 0.0089261 
。 0.0051577 -0.00080114 0.0034829 -0.01724 0.010257 0.044933 0.0026989 -0.023322 0.014901 -0.033053 -0.013927 -0.015165 -0.024056 0.037821 -0.015672 -0.015927 0.011824 0.032763 -0.024228 -0.012633 -0.020165 0.0035655 0.011924 0.024488 -0.0083854 -0.043122 -0.014268 -0.0031254 0.012308 -0.01129 -0.012507 -0.030913 -0.022682 -0.025797 -0.021166 -0.010529 -0.027843 0.031866 -0.011879 -0.009765 -0.024212 0.026801 -0.009842 0.0093728 -0.0037627 0.018219 -0.025319 0.037574 -0.036532 -0.0090821 
资 0.00085837 -0.0044137 0.0060294 0.0066814 0.0020469 -0.0034861 -0.0070184 0.0014586 0.0011446 -0.0022336 -3.8864e-05 -0.0084019 -0.0049347 0.0056883 0.0069646 0.0035434 0.001416 -0.011434 0.00042387 -0.0097875 0.001728 0.0098315 0.0011313 -0.010294 -0.0053529 0.0058379 -0.0036565 0.0042477 -0.0060439 0.0083833 -0.0051359 0.0034808 -0.0013864 -0.00059189 0.00092202 0.0021453 -0.004992 -0.0084976 -0.00029943 -0.0010895 -0.00046647 0.0069212 -0.00039718 -0.0016008 0.0064703 -0.007858 0.01235 -0.0042791 -0.00015132 0.0061537 
、 0.019225 -0.13543 -0.14557 0.0096673 -0.029947 0.31177 0.15689 -0.31061 0.23575 -0.26425 -0.1424 -0.029552 -0.14385 0.31163 -0.038812 -0.007267 0.055011 0.20418 -0.12256 -0.11167 -0.095797 -0.17794 0.027142 0.11682 0.095487 -0.3542 0.07311 -0.024775 0.17194 0.040614 -0.019168 -0.31608 -0.38107 -0.16832 -0.11932 -0.089746 -0.17417 0.28663 -0.11328 -0.034955 -0.055521 0.08597 0.017426 0.029301 -0.19596 0.14515 -0.37495 0.43712 -0.24221 -0.13041 
金 -0.0024056 0.039692 0.05911 -0.015644 -0.0072833 -0.11512 -0.053479 0.092168 -0.083662 0.10966 0.060718 0.019974 0.06036 -0.12122 -0.0029352 0.002944 -0.024793 -0.088288 0.053863 0.030117 0.042144 0.071292 -0.0075953 -0.049519 -0.044361 0.13451 -0.0054713 0.0021457 -0.063908 -0.011453 0.011847 0.11936 0.13044 0.053604 0.028423 0.018329 0.062597 -0.083998 0.063356 0.014741 0.011758 -0.025602 0.0088418 -0.0076602 0.088867 -0.047841 0.14947 -0.15228 0.096371 0.062103 
行 0.0081207 0.014398 0.013266 -0.0075122 0.0058892 -0.021859 -0.018995 0.024273 -0.013814 0.027188 0.0061411 0.012143 0.014216 -0.036881 0.0049106 -0.00252 -0.015583 -0.027408 0.020975 0.0080336 0.0095804 0.020053 -0.009825 -0.018706 -0.00021252 0.037237 -0.0062158 -0.0051819 -0.034723 -0.0042214 0.00048379 0.029566 0.030013 0.017661 0.016636 0.017805 0.019646 -0.023748 0.011887 0.010059 0.0015407 0.0013812 -0.0026192 -0.012513 0.018323 -0.014125 0.034945 -0.034976 0.030709 0.015794 
一 -0.0025143 -0.06073 -0.062409 -0.0059624 -0.011366 0.14383 0.071545 -0.13863 0.099298 -0.12158 -0.05612 -0.014227 -0.060597 0.14177 -0.028181 -0.0056139 0.03112 0.094647 -0.051128 -0.062474 -0.04766 -0.066001 0.0096105 0.054915 0.054231 -0.14956 0.035595 0.0011024 0.096017 0.01092 -0.0026103 -0.14228 -0.15503 -0.073345 -0.045172 -0.02734 -0.075661 0.13898 -0.062261 -0.038003 -0.014179 0.028092 0.0081543 0.01942 -0.10994 0.055531 -0.18128 0.19092 -0.11798 -0.070088 
是 -0.00092554 0.0028966 -0.0040238 -0.0032454 0.010101 0.017423 0.00095542 -0.0080156 0.010459 0.00018276 -0.0018417 -0.002907 -0.006364 0.013375 0.0023664 0.010715 0.0068743 -0.0011041 -0.0042911 0.013087 0.00067695 -0.0034935 -0.0028 -0.0012355 0.0030281 -0.0019404 0.0041503 0.0067693 0.0085558 -0.0020193 0.0065901 0.0027366 0.0010011 0.0011324 0.002425 -0.0061439 -0.0056501 0.010007 -0.0057429 -0.0014633 0.0038874 0.00080311 -0.0010431 0.014885 -0.0011572 -0.0050965 -0.00040564 0.0040903 -0.00034331 -0.0028274 
有 -0.0057542 -0.017258 -0.028432 -0.0053842 -0.00085693 0.065578 0.023949 -0.046895 0.036532 -0.056031 -0.018177 0.0028008 -0.019922 0.062585 0.003002 6.7274e-05 0.014161 0.029723 -0.018658 -0.019241 -0.026809 -0.036286 0.0057528 0.022825 0.012113 -0.073961 0.00066613 -0.00057726 0.049104 0.0083439 -0.011069 -0.05944 -0.057403 -0.020839 -0.011136 -0.015243 -0.022946 0.053024 -0.025905 -0.0034687 -6.8936e-05 0.014798 0.00061654 1.8561e-05 -0.035151 0.020009 -0.070689 0.073633 -0.049614 -0.032677 
人 -0.0077001 0.017733 0.020425 0.0017482 0.0025538 -0.046253 -0.039738 0.051362 -0.045608 0.058477 0.025812 0.0098671 0.018907 -0.052933 0.0069622 0.0028217 -0.0044365 -0.034665 0.019649 0.010113 0.0077534 0.033687 -0.0067411 -0.022723 -0.017912 0.055607 -0.010101 0.0068758 -0.036949 -0.010769 0.0066639 0.057445 0.05682 0.028312 0.020227 0.0074862 0.020138 -0.051633 0.027467 0.010734 -0.0023684 -0.017382 -0.0059057 -0.009292 0.041551 -0.025081 0.058496 -0.068465 0.044179 0.03014 
业 0.0025085 -0.07591 -0.097327 0.012093 -0.0079336 0.18224 0.097129 -0.15403 0.11556 -0.16103 -0.082615 -0.024357 -0.073318 0.16066 -0.021531 -0.0080139 0.02181 0.10069 -0.069565 -0.062208 -0.059925 -0.076372 0.021369 0.053515 0.046387 -0.18643 0.040997 -0.011709 0.10339 0.010692 -0.00061317 -0.16299 -0.1928 -0.075194 -0.038496 -0.048846 -0.092521 0.1475 -0.079216 -0.0080581 -0.01625 0.032448 -0.0071499 0.017747 -0.11065 0.078269 -0.22751 0.21819 -0.1439 -0.091782 
在 0.00059288 0.021284 0.030178 -0.00028468 -0.0012723 -0.049121 -0.029371 0.037078 -0.023495 0.044242 0.010662 0.0047561 0.021252 -0.058854 0.0049751 0.0031871 -0.0091714 -0.030305 0.011622 0.023512 0.022742 0.027398 -0.0031296 -0.018181 -0.0084144 0.054075 -0.015668 0.0034917 -0.016875 0.00017648 0.0099302 0.04847 0.046553 0.024814 0.0090215 0.010758 0.0231 -0.034868 0.0082057 0.0027768 0.0008291 -0.014887 0.0063714 -0.0064741 0.025471 -0.020548 0.053431 -0.059241 0.023445 0.015079 
不 0.0043063 0.13372 0.13402 -0.016398 0.039076 -0.33659 -0.17788 0.30194 -0.20164 0.28049 0.12296 0.036821 0.12356 -0.34328 0.020904 0.028418 -0.070201 -0.20415 0.10691 0.13816 0.093314 0.17081 -0.049387 -0.11789 -0.09352 0.3527 -0.063428 -0.0094134 -0.20383 -0.04275 0.038505 0.34451 0.38307 0.16231 0.11664 0.066048 0.1762 -0.26025 0.1487 0.052506 0.036842 -0.086888 -0.01421 -0.031126 0.19023 -0.15256 0.38529 -0.42677 0.26814 0.1249 
公 -0.01556 0.054943 0.056753 -0.021409 0.033195 -0.17141 -0.09663 0.15178 -0.10851 0.13108 0.070096 -0.0040036 0.071642 -0.14847 0.029657 0.0061637 -0.035936 -0.10528 0.060139 0.070275 0.058932 0.07693 -0.033851 -0.051361 -0.060173 0.16807 -0.041818 0.013275 -0.10582 -0.01398 0.010581 0.18442 0.20678 0.09684 0.034129 0.048072 0.097345 -0.15528 0.082525 0.0311 0.030959 -0.027922 -0.0037476 -0.0016285 0.11312 -0.058005 0.21276 -0.19897 0.13932 0.091397 
投 -0.016496 0.019528 0.026634 0.015783 -0.0028877 -0.04007 -0.024682 0.049333 -0.027667 0.0309 0.020542 -0.010956 0.02831 -0.063429 0.0047134 -0.0030981 -0.0024189 -0.030102 0.0079548 0.01192 0.016285 0.038111 -0.0076 -0.019992 0.0032968 0.05614 -0.023956 0.012477 -0.04104 -0.010631 0.0092995 0.036599 0.061012 0.038878 0.012257 0.012023 0.017753 -0.029094 0.018443 -0.0028964 0.0072032 -0.021533 -0.00095797 -0.010735 0.014638 -0.016125 0.043907 -0.07272 0.033356 0.013785 
为 -0.0021627 2.6563e-06 -0.0018278 -0.013322 0.015141 -0.018365 -0.00060276 0.0065713 0.00062534 0.0054106 -0.017689 0.0024207 -0.011402 0.014212 -0.0016141 -0.00083153 -0.0050067 0.005261 0.0056694 -0.0015135 -0.0034282 -0.010298 0.0045634 -0.0081152 0.0079874 -0.0070438 0.0023581 -0.011123 0.013785 0.014073 0.00092264 0.014496 -0.00513 0.0024754 -0.016341 -0.00076794 0.0020439 0.00053658 0.0089753 0.012672 -0.00099811 -0.0049073 0.0019958 0.016525 0.0009711 -0.013444 -0.00012607 0.00048096 0.00089003 0.015869 
上 0.0072895 -0.0018621 -0.015684 0.005448 0.0058373 0.031202 0.018344 -0.018676 0.0016658 -0.011501 -0.012829 0.0049154 -0.0061208 0.019583 -0.0010399 -0.0086122 0.0077856 0.0059024 -0.0038499 -0.014396 -0.0062316 -0.013468 0.014913 0.0060826 0.0068463 -0.022307 0.0019169 -0.0014791 0.0089918 0.0019717 -0.00077999 -0.029073 -0.024781 -0.017305 -0.0021599 -0.0020799 -0.015116 0.0113 -0.0079549 -0.0005898 -0.0031734 -0.007781 0.0072663 0.0020807 -0.017072 0.0011358 -0.02545 0.038064 -0.014307 -0.0035196 
了 -0.0044254 0.018778 0.023643 0.0030415 0.0058158 -0.060085 -0.028448 0.060472 -0.042013 0.047335 0.019168 0.0083276 0.031059 -0.071757 0.0012497 -0.0018501 -0.012288 -0.03504 0.028489 0.020138 0.026224 0.03035 -0.006848 -0.031563 -0.022728 0.07886 -0.0078874 -0.003702 -0.03518 -0.014312 0.0074191 0.061918 0.08401 0.038369 0.011887 0.011226 0.03187 -0.046731 0.028651 0.0085568 0.015317 -0.011616 -0.0080316 -0.0023952 0.025667 -0.030559 0.078278 -0.084588 0.057299 0.023556 
中 -0.001616 -0.00074478 0.0076295 0.00040433 0.0043572 -0.016852 -0.01531 0.015774 -0.013237 0.021025 0.0042992 -0.0029804 0.0084207 -0.01914 0.0011094 -0.0015544 -0.0059709 -0.011633 0.0033878 0.013876 -2.2274e-05 -0.0015757 -0.0055108 -0.0034639 -0.00036124 0.024287 -0.0084535 0.0082474 -0.0068847 -0.0050321 0.0018564 0.025844 0.022616 0.012155 0.0026808 0.0089284 0.0031425 -0.012532 0.0026252 -0.0017955 0.0080921 -0.001083 -0.0060564 -0.0040052 0.011527 -0.0078435 0.024898 -0.01532 0.0018913 0.01414 
大 0.0004873 -0.016912 -0.025963 0.013834 0.0061595 0.057859 0.023914 -0.06818 0.046724 -0.067066 -0.011383 0.003716 -0.034373 0.069913 -0.010563 -0.0088243 0.001187 0.037367 -0.01894 -0.025331 -0.014378 -0.033181 0.015918 0.0098077 0.018887 -0.084101 0.022193 0.0019312 0.02644 0.0094049 0.0059544 -0.081907 -0.065137 -0.032394 -0.010363 -0.01712 -0.025047 0.057567 -0.036253 -0.026951 -0.015355 0.017319 -0.011036 -7.1886e-05 -0.034356 0.042157 -0.07685 0.097719 -0.058181 -0.019326 
平 -0.0054795 -0.026308 -0.025444 -0.0049836 -0.01005 0.040242 0.029436 -0.042529 0.040678 -0.044725 -0.013302 0.012055 -0.027127 0.053808 -0.0099919 0.0162 0.016184 0.025791 -0.021554 -0.0036391 -0.00047729 -0.015175 0.011885 0.020882 0.0045394 -0.061479 0.010786 0.0020492 0.043816 0.0083545 -0.0027403 -0.052027 -0.060501 -0.03142 -0.016262 -0.02936 -0.033173 0.044862 -0.02617 -0.014002 -0.019473 0.021715 0.016941 -0.0074698 -0.042395 0.020079 -0.065924 0.076581 -0.041228 -0.013584 
司 0.001695 0.015867 0.0061088 0.0033755 0.0024912 -0.0013995 0.0014267 0.0064628 -0.013109 0.0064613 -0.0021414 0.0039899 0.017634 -0.00049924 0.0043066 0.0041975 -0.0061549 -0.0055444 0.011937 0.0082113 -0.002045 0.0023109 -0.008137 0.0035872 -0.014395 0.019419 -0.011266 0.012416 -0.016258 0.0030145 0.0015369 0.013847 0.0079438 0.00074994 0.0016517 -0.00012512 -0.0013239 -0.0025879 -0.0027142 -0.0033663 -0.0032949 0.0064591 0.0064945 -0.00091134 0.0023532 -0.0068737 0.014788 -0.01211 0.0034322 0.017661 
年 -0.0054924 0.0085007 0.014517 -0.0013492 0.0046136 -0.0097504 -0.0070593 0.020181 -0.0085429 0.012265 0.0035532 -0.0094478 0.015622 -0.013915 0.007553 0.0062184 -0.00085739 -0.012075 -0.001486 0.012034 0.002425 0.012484 -0.0093763 -0.0078116 -0.0088212 0.020417 -0.0004695 -0.0028216 0.0036265 -0.0012969 -0.0012923 0.020399 0.02324 0.01716 0.0032399 0.0081345 0.01647 -0.011089 0.0014727 -0.0016114 -0.0041952 -0.0059566 -0.0027515 -0.0033848 0.013312 -0.0023738 0.014328 -0.025301 0.0062327 0.0086029 
发 -0.0018502 0.089786 0.1124 -0.025787 0.042195 -0.2848 -0.17031 0.24878 -0.18106 0.23974 0.10282 0.037972 0.14361 -0.26335 0.034758 0.011638 -0.045378 -0.18915 0.10915 0.092952 0.11118 0.14435 -0.023457 -0.093911 -0.090273 0.28873 -0.041628 0.022629 -0.14723 -0.040383 0.026004 0.29016 0.33825 0.15551 0.069635 0.074045 0.1564 -0.24698 0.09883 0.04134 0.045938 -0.077762 0.011784 -0.040122 0.19218 -0.13539 0.33812 -0.34707 0.2208 0.12663 
融 0.012339 -0.0013357 -0.0033819 0.0016601 -0.00062092 0.0075762 0.015237 -0.021644 0.011184 -0.02214 -0.0099328 0.00083021 -0.014345 0.0081611 -0.012406 0.0036405 -0.0026593 0.0052758 -0.0048229 -0.013253 0.00066077 0.0012609 0.0079915 0.0030195 0.011533 -0.029421 0.011835 -0.0038817 0.013453 0.012319 0.0034638 -0.018735 -0.018974 -0.0060542 0.001505 -0.0083325 -0.006703 0.013053 -0.0087102 -0.0063971 0.0022 -0.0020946 0.0097416 -0.0017786 -6.5734e-05 0.004966 -0.021052 0.028333 -0.01557 -0.013744 
国 0.011332 0.0077627 0.011382 0.0071406 0.001228 -0.023595 -0.017891 0.016569 -0.016317 0.028911 0.0085669 0.011389 0.0059414 -0.024243 0.0045463 0.0020657 0.0070521 -0.020967 0.010801 0.016774 0.0069433 0.014315 -0.0029817 -0.013032 0.0030905 0.032214 0.0019626 -0.00064338 -0.012847 -0.008549 0.0071251 0.038248 0.031199 0.018988 0.016012 0.012426 0.002098 -0.033989 0.011539 0.010746 0.021588 -0.0087924 -0.0052487 0.009621 0.019645 -0.014785 0.02911 -0.041793 0.031916 0.0070089 
理 0.0042966 -0.030621 -0.042809 -0.0042031 -0.0078316 0.091424 0.040609 -0.07387 0.060618 -0.064801 -0.040793 -0.0017524 -0.038117 0.088888 -0.0081795 -0.0070638 0.0057358 0.054388 -0.025102 -0.037045 -0.039608 -0.034921 0.018139 0.02536 0.027134 -0.11024 0.018777 -0.0075204 0.051107 0.021224 0.0007046 -0.084717 -0.10393 -0.053155 -0.032361 -0.019893 -0.033734 0.076304 -0.041942 -0.015077 -0.010688 0.018525 0.0075822 0.0032226 -0.055363 0.036001 -0.10646 0.10901 -0.061545 -0.033135 
“ -0.00077808 0.08872 0.13252 0.00053923 0.038607 -0.30778 -0.14851 0.25184 -0.18772 0.2571 0.10041 0.038971 0.1054 -0.29354 0.019256 0.0088713 -0.044798 -0.16888 0.085273 0.12349 0.08261 0.15823 -0.032355 -0.11114 -0.080567 0.31869 -0.040724 -0.013758 -0.15403 -0.021996 0.013621 0.3048 0.3113 0.13947 0.10803 0.057144 0.141 -0.22664 0.10284 0.027279 0.021272 -0.055198 -0.017031 -0.026144 0.17529 -0.12208 0.36208 -0.38055 0.23794 0.13166 
” -0.019832 0.11957 0.12254 -0.018581 0.01442 -0.3034 -0.15397 0.25532 -0.1877 0.26075 0.096193 0.026547 0.10659 -0.27497 0.046981 0.00085523 -0.045299 -0.18528 0.092098 0.11052 0.080102 0.14121 -0.026065 -0.11819 -0.10336 0.32908 -0.039211 0.021387 -0.17442 -0.015008 0.033062 0.27498 0.3255 0.16975 0.085399 0.057701 0.15187 -0.23378 0.10833 0.027587 0.051585 -0.061319 -0.017871 -0.01755 0.16335 -0.13893 0.33786 -0.36881 0.22467 0.1246 
: -0.003498 -0.073875 -0.10839 0.012236 -0.0073857 0.22934 0.11594 -0.20158 0.13043 -0.16924 -0.075037 -0.032419 -0.087613 0.21211 -0.019741 0.0070941 0.032662 0.14474 -0.079176 -0.084743 -0.071467 -0.11799 0.025998 0.077296 0.068592 -0.2187 0.038301 0.013861 0.10414 0.012546 -0.015838 -0.21465 -0.22834 -0.11972 -0.078823 -0.045877 -0.11779 0.17088 -0.086885 -0.027907 -0.033693 0.047021 0.013935 0.023277 -0.1433 0.072093 -0.25685 0.28117 -0.16325 -0.088998 
以 0.0014708 -0.032634 -0.03346 0.010507 -0.0021709 0.09031 0.047757 -0.077325 0.06762 -0.073071 -0.031278 0.00077695 -0.045298 0.097382 -0.0063157 0.0049324 0.023059 0.059506 -0.031971 -0.03327 -0.026227 -0.044152 0.0014672 0.020869 0.031246 -0.10067 0.02143 -0.0037516 0.062261 0.0068261 -0.010945 -0.089726 -0.099788 -0.045579 -0.026638 -0.01723 -0.033506 0.075884 -0.033181 -0.024436 -0.025187 0.021227 0.0041622 0.0025791 -0.067761 0.042646 -0.12052 0.12007 -0.078834 -0.042845 
网 0.004243 0.022302 0.017496 0.0027324 0.017472 -0.046874 -0.023216 0.049237 -0.026516 0.051496 0.021942 0.010174 0.020591 -0.045363 0.0019533 -0.0024003 -0.0045494 -0.034098 0.014809 0.01466 0.010528 0.022683 0.0027352 -0.0069254 -0.0059425 0.049288 -0.004888 0.0050215 -0.025182 -0.011297 0.011894 0.047487 0.055275 0.02624 0.01343 0.0046156 0.016732 -0.0381 0.024979 0.0043343 0.004013 -0.0042367 -0.00073629 0.0058117 0.033516 -0.010599 0.050917 -0.057447 0.047396 0.02344 
台 0.0086494 -0.002745 -0.010143 -0.012657 0.0032853 0.02974 0.027364 -0.028694 0.0095053 -0.032104 0.0026951 -0.0078424 -0.0091247 0.035977 0.0067551 -0.00076243 0.022106 0.0177 0.0025153 -0.023167 -0.016332 -0.0035828 0.011322 0.010061 0.014831 -0.030749 0.015758 0.0058806 0.033044 0.0053873 -0.010964 -0.027511 -0.027713 -0.0126 0.0022874 0.0027756 -0.027305 0.022595 4.0595e-05 0.0051166 -0.00094054 0.0075726 0.0061416 0.019583 -0.014944 0.0061498 -0.041167 0.050106 -0.012835 -0.0057782 
和 0.005618 -0.018454 -0.018476 0.0020964 -0.012275 0.03916 0.021772 -0.033419 0.038323 -0.051006 -0.016736 -0.0081616 -0.017588 0.043206 -0.011238 -0.00043401 0.020356 0.01875 -0.010365 -0.022791 -0.011261 -0.030368 0.0019385 0.0034979 0.013978 -0.037077 0.018082 -0.002896 0.024774 0.0090705 -0.013569 -0.054199 -0.047943 -0.033644 -0.021156 -0.0041034 -0.0047313 0.045519 -0.0097965 -0.0090689 -0.0047942 0.013123 -0.0066165 0.011563 -0.024106 0.0067933 -0.042846 0.046158 -0.048016 -0.016865 
个 -0.006882 0.0077486 0.0020662 -0.0019532 -0.00040708 -0.014735 -0.0096667 0.016487 -0.018165 0.0059087 -0.0054839 0.003609 0.0089475 0.0044886 -0.0051138 0.0030595 0.012825 0.0038447 -0.0002884 0.0090239 -0.011688 0.018973 0.0011708 -0.0091049 -0.01206 0.0039872 -0.0064916 -0.00039416 -0.0058936 0.0011013 0.018147 0.012299 0.018976 -0.0099805 0.011642 0.011608 0.01588 -0.0013745 0.020828 -0.0051373 0.019122 -0.017817 0.0058365 0.0074693 0.017083 -0.013336 0.017829 -0.020829 -0.002185 0.015693 
产 0.0056068 0.018495 0.0030512 -0.0038472 0.0048076 -0.0050671 -0.010762 0.021174 0.003336 0.016391 -0.005712 0.00023283 0.0010152 -0.0021437 0.0087724 0.0019474 -0.012516 -0.0097394 0.0058881 -0.0050021 -0.0059744 -0.0050874 0.0025591 -0.00034335 0.0047028 0.010336 -0.0027562 -0.005985 0.002334 -0.0049184 -0.0024294 -0.0058335 0.011212 -0.0010543 -0.0030739 0.001753 0.0099147 -0.0044955 -0.010235 0.012431 -0.0011265 0.0015364 0.0031368 -0.0078176 -0.0019683 -0.020837 -0.00067427 0.00052402 -0.0054725 -0.0016071 
股 -0.0066513 -0.050467 -0.061395 0.0046402 -0.028601 0.14464 0.073893 -0.11684 0.096023 -0.10331 -0.042462 -0.0053906 -0.045428 0.1437 -0.017666 -0.010271 0.027575 0.092624 -0.049618 -0.054404 -0.050713 -0.079117 0.028516 0.050176 0.044641 -0.14451 0.042027 -0.0084815 0.074396 0.0054503 -0.011119 -0.14414 -0.15376 -0.070202 -0.035364 -0.018558 -0.060654 0.11911 -0.040956 -0.01728 -0.022086 0.03892 0.016538 0.0048125 -0.093234 0.051327 -0.16869 0.18136 -0.10217 -0.057689 
. 0.005693 0.072148 0.10175 -0.0099961 0.026738 -0.17767 -0.09347 0.16449 -0.12682 0.1796 0.055595 0.012486 0.080332 -0.19205 0.019339 0.0031528 -0.043046 -0.13333 0.052923 0.065276 0.066046 0.10256 -0.015143 -0.057955 -0.0693 0.19948 -0.045126 0.0078595 -0.10782 -0.021514 0.020063 0.19163 0.22335 0.11436 0.058343 0.047619 0.076195 -0.14483 0.07008 0.017778 0.023107 -0.035892 -0.011868 -0.013495 0.12892 -0.076192 0.21916 -0.26236 0.14552 0.073553 
会 0.0054526 -0.085615 -0.096032 0.0068259 -0.027727 0.23172 0.1359 -0.21621 0.16093 -0.21325 -0.085439 -0.021492 -0.10757 0.23433 -0.016148 -0.019603 0.046868 0.1536 -0.074341 -0.071883 -0.088574 -0.10917 0.024008 0.074224 0.070388 -0.24809 0.057632 -0.0061438 0.14126 0.028328 -0.019272 -0.23034 -0.25801 -0.11621 -0.085459 -0.051911 -0.11403 0.18249 -0.088553 -0.036226 -0.011893 0.042987 0.0055645 0.01222 -0.15503 0.10135 -0.28297 0.30271 -0.16428 -0.10079 
对 0.0086987 -0.050465 -0.035911 0.0057276 -0.0092112 0.090268 0.061817 -0.06983 0.060577 -0.079962 -0.031825 -0.0081015 -0.044647 0.08716 -0.012386 0.0037478 0.013262 0.060244 -0.018237 -0.038163 -0.045852 -0.052557 0.021342 0.02265 0.034107 -0.093599 0.01573 -0.0089914 0.055541 0.010264 -0.011159 -0.10238 -0.10813 -0.041222 -0.043188 -0.032331 -0.029057 0.088981 -0.022434 -0.0097127 -0.026753 0.026763 0.0075244 0.011758 -0.046988 0.039774 -0.11647 0.12653 -0.06116 -0.032938 
信 0.0016717 0.0080935 0.024537 -0.0032603 0.0073441 -0.039827 -0.018873 0.02947 -0.020248 0.052213 0.010757 0.0045092 0.009925 -0.044029 -0.0016838 -0.0013416 -0.011349 -0.030181 0.012548 0.016334 0.014157 0.031142 0.0018845 -0.010904 -0.0082255 0.061658 -0.010188 -0.0075961 -0.027113 -0.018043 -0.0037199 0.053229 0.039269 0.029883 0.023927 0.0098428 0.02303 -0.033646 0.007269 0.0067402 0.0093169 -0.0079238 0.0044289 -0.0023798 0.023746 -0.012188 0.044832 -0.059739 0.030059 0.022182 
经 0.0049284 0.040314 0.023165 -0.019959 0.010476 -0.0554 -0.055 0.064869 -0.057696 0.046817 0.021714 0.022283 0.025697 -0.049987 -0.0017834 0.013773 -0.00030032 -0.039207 0.041753 0.012668 0.039317 0.016374 0.011337 -0.023484 -0.020492 0.061686 -0.0013549 -0.0060942 -0.053061 -0.0044294 0.024155 0.082055 0.076654 0.051979 0.021561 -0.0034959 0.02277 -0.059794 0.0085347 0.01897 0.018517 0.0023676 -0.0074522 -0.0065351 0.047706 -0.043312 0.088483 -0.079103 0.051011 0.011516 
下 -0.0035808 0.010718 0.015129 -0.0067281 -0.002668 -0.035217 -0.019629 0.027071 -0.031086 0.035366 0.017326 0.00068757 0.020868 -0.039085 -0.00098243 -0.004745 -8.4109e-05 -0.019824 0.014587 0.012587 -0.0034157 0.015322 -0.0017662 -0.014733 -0.016622 0.04009 -0.014321 0.0035969 -0.018301 -0.011334 0.003521 0.034352 0.038952 0.017877 0.015165 0.016612 0.015764 -0.033158 0.0045677 0.0012533 0.011005 -0.013027 -0.0090847 -0.0093871 0.019678 -0.024072 0.04873 -0.045199 0.028056 0.020697 
贷 -0.01529 0.058636 0.073759 -0.010517 0.011635 -0.16463 -0.083371 0.1623 -0.092678 0.14369 0.05499 0.0060613 0.076721 -0.15673 0.0070887 0.02479 -0.0089094 -0.091472 0.054099 0.066333 0.061302 0.099874 -0.035722 -0.067943 -0.038503 0.19006 -0.03037 0.018776 -0.099626 -0.030353 0.019163 0.15784 0.18996 0.086395 0.051667 0.047197 0.095779 -0.13721 0.055194 0.032716 0.013635 -0.031371 -0.020443 -0.0043439 0.11889 -0.062103 0.20784 -0.22623 0.12166 0.073262 
要 0.012293 -0.025261 -0.055048 0.016049 -0.021073 0.09835 0.047711 -0.090393 0.09366 -0.10609 -0.039596 -0.00095599 -0.061118 0.11275 -0.011656 -0.017123 0.018365 0.066193 -0.026266 -0.044474 -0.039478 -0.071621 0.011739 0.03715 0.035516 -0.11989 0.016553 -0.015413 0.0687 0.021101 -0.0041389 -0.1195 -0.13463 -0.056252 -0.036384 -0.030989 -0.046687 0.10063 -0.043558 -0.027486 -0.015803 0.013592 -0.0026362 0.0015927 -0.059633 0.046556 -0.14435 0.15439 -0.087816 -0.070576 
务 0.0022629 0.014203 0.019805 0.013727 0.0081145 -0.033113 -0.024562 0.029787 -0.029608 0.041629 0.022974 0.0045481 0.022679 -0.037506 -0.0033732 0.011168 -0.00052302 -0.028247 0.014133 0.019734 0.011109 0.019419 -0.0079094 -0.0066645 -0.013053 0.038765 -0.026284 0.0022556 -0.028629 -0.011058 0.0065314 0.029704 0.043577 0.024077 0.019125 0.005573 0.031983 -0.025919 0.01818 0.014308 0.010976 -0.020953 -0.00056401 0.0043534 0.025739 -0.016945 0.052596 -0.043189 0.034141 0.014398 
元 0.0054354 -0.071569 -0.090001 0.014073 -0.033564 0.18661 0.094553 -0.16455 0.12034 -0.15133 -0.073634 -0.0086425 -0.08886 0.1869 -0.029947 -0.015845 0.028056 0.12386 -0.063765 -0.079951 -0.0578 -0.087219 0.017208 0.058612 0.052456 -0.20964 0.033168 -0.020276 0.10771 0.036914 -0.017965 -0.20007 -0.21682 -0.10143 -0.057031 -0.034734 -0.10125 0.17513 -0.090104 -0.029925 -0.030917 0.040406 0.012708 0.0085611 -0.12686 0.077641 -0.22118 0.25296 -0.15245 -0.071035 
管 0.0086207 0.0031611 -0.014446 0.0013571 0.0014152 0.0067829 0.00075965 -0.013646 -0.0017166 0.0016578 -0.016052 0.0036271 -0.0038338 0.007078 -0.00061393 0.0039591 0.0072801 0.010248 0.010531 -0.0017992 0.00094176 -0.0094833 0.010077 0.0071865 0.00044921 -0.00093571 0.0082204 -0.0025828 -0.0069745 0.005278 -0.0079121 0.00017278 -0.0063062 0.01193 -0.0056138 0.010077 0.0063006 0.0055812 -0.002726 0.010058 0.0002927 -0.0086862 0.0026503 -0.015119 -0.0137 0.0043308 -0.015134 0.0039572 -0.020338 -0.0039093 
现 0.01266 0.015397 0.031077 -0.013357 0.0032789 -0.057388 -0.033207 0.057568 -0.040868 0.065624 0.030608 -0.0042672 0.027071 -0.054565 0.012328 0.0080861 0.0023106 -0.048144 0.021342 0.024097 0.019323 0.034774 -0.0027919 -0.0178 -0.027167 0.064507 -0.014457 0.00096136 -0.035563 -0.00574 -0.0013291 0.062706 0.060675 0.028668 0.025881 0.014358 0.030091 -0.045582 0.029801 0.014542 0.015157 -0.019838 -0.00061181 -0.00022964 0.044947 -0.028315 0.072564 -0.079773 0.044075 0.034911 
出 0.00032484 0.0092552 0.0019444 0.0037744 -0.012986 -0.018533 -0.0093817 0.0017015 -0.0066695 0.0085314 -0.0079215 0.0058322 -0.0025635 -0.017617 -0.0072803 0.0031459 0.0071436 -0.018236 0.00060393 0.0076786 0.012714 -0.0010717 -0.0035572 -0.0089635 0.0032445 0.019412 -0.0061914 -0.0039008 -0.024534 -0.0045447 0.0037059 0.010871 0.0075603 0.0018235 -0.0032734 -0.0010589 -0.0018467 -0.022139 -0.00043864 0.0053859 -0.0085171 0.0095433 0.003508 -0.0016831 -0.0061727 -0.0015276 0.0026671 -0.021709 -0.0047396 0.002497 
市 -0.0033078 -0.0071266 0.0027667 0.0049061 -0.0021769 0.0026138 -0.0026152 0.0029444 -0.0047009 0.01222 0.0061929 -0.015517 -0.007363 0.0048425 0.0022545 0.00048903 0.0020655 0.0035708 -0.0023146 -0.0014465 0.0032164 0.007511 -0.0091936 0.0014958 -0.0057658 0.0076307 -0.0029038 -0.0074785 -0.0046114 -0.010444 -0.0035552 0.0077605 0.0098799 -0.0087202 0.002886 0.0013285 0.0054669 -0.0087571 -1.5805e-05 -0.0030201 -0.0060465 -0.0030341 -0.011572 -0.0067873 0.0071806 -0.015482 0.005329 -0.0047074 -0.0056762 0.0050781 
期 -0.00012635 -0.0011428 -0.0099827 0.0044998 0.0008261 0.021826 0.016308 -0.018558 0.018164 -0.018372 -0.0073371 0.0010279 -0.014606 0.019504 -0.0049348 -0.0087337 -0.0011467 0.021908 0.0030856 -0.011913 -0.011184 -0.0055162 -0.0088303 0.002057 0.0070076 -0.016646 -0.0029593 -0.0065057 0.013201 0.0055262 -0.014179 -0.018464 -0.02163 -0.0050811 -0.001924 -0.0041631 -0.0090724 0.016733 -0.013123 -0.0068351 -0.0081087 0.00071338 -0.0066503 0.015379 -0.016713 0.003004 -0.025312 0.033648 -0.003624 -0.0038193 
能 -0.015387 -0.012257 -0.016833 0.006547 0.0026791 0.030573 0.02098 -0.042224 0.037146 -0.046359 -0.014012 -0.0027833 -0.018002 0.046846 0.0038254 -0.0073562 -7.4723e-05 0.033688 -0.014702 -0.012031 -0.017755 -0.029787 0.0073954 0.012729 0.0083821 -0.047426 0.011568 -0.0069662 0.022657 0.0033412 -0.00037144 -0.046011 -0.053432 -0.022676 -0.015961 -0.011249 -0.011852 0.040291 -0.023036 -0.0064484 0.0009416 0.0090993 0.002658 0.0080538 -0.036866 0.0099063 -0.054627 0.053265 -0.046281 -0.014768 
于 0.0071209 -0.0085661 -0.0033532 -0.0082651 -0.0032969 -0.00050943 -0.0050434 0.013721 0.004598 0.011668 -0.00064956 -0.0038884 -0.0016322 -0.011447 -0.0015057 0.00043689 0.0011258 -0.0039672 0.0047171 -0.00036306 -0.0024758 0.0038418 -0.00061877 -0.011588 0.007066 0.0047327 -0.0030977 0.0052167 0.00026848 0.01013 0.0026695 0.0048749 -0.0051035 -0.0066414 0.00028786 0.003793 0.0024322 -0.012133 0.011301 -0.0093063 0.00019424 -0.010104 0.0059361 0.0050929 0.0062751 -0.008324 0.0027855 -0.0064467 0.0065216 0.0037269 
银 0.0079036 -0.0017804 0.009402 -0.0074091 -0.0050267 -0.025385 -0.011073 0.013916 -0.016132 0.022165 0.012055 0.0010289 0.0148 -0.019638 -0.0094852 0.0031032 0.0010236 -0.015796 0.0057772 0.022307 0.014836 0.0058661 -0.0032528 -0.0077756 0.00085353 0.019397 -0.012288 -0.012856 -0.01075 -0.0012049 -0.0015583 0.016903 0.026831 0.012705 0.0063676 0.00040625 0.0025322 -0.017569 0.015237 0.0047187 -0.0020659 -0.0071298 0.0014234 0.0064887 0.018369 -0.010605 0.024522 -0.02536 0.014132 0.0084182 
这 0.0055694 0.012072 0.0065134 0.0010078 0.002357 -0.041476 -0.013598 0.03417 -0.022507 0.022647 0.015 -0.0021151 0.0064781 -0.02924 0.00061716 -0.0032396 -0.006932 -0.02013 0.012756 0.01523 0.015237 0.014548 -0.0017254 -0.012116 -0.0023296 0.028355 0.00053946 0.010029 -0.015087 -0.0069593 0.0090965 0.036333 0.038458 0.023767 0.013083 0.0062188 0.013879 -0.020464 0.017454 0.0030235 0.013062 -0.0068068 -0.0049064 -0.0029125 0.011924 -0.02081 0.046775 -0.033596 0.034694 0.01534 
来 0.01407 -0.022807 -0.012757 0.005386 -0.015108 0.033498 0.011821 -0.029667 0.031313 -0.024675 -0.005671 -0.00075805 -0.015345 0.039768 0.0087069 -0.007195 -0.00082623 0.028673 -0.0105 -0.019847 -0.0039128 -0.0011403 -0.011208 0.008586 0.0013965 -0.025933 0.019557 0.0057006 0.016978 0.0060918 -0.01863 -0.044854 -0.027526 -0.0034725 -0.010759 -0.0055412 -0.0046827 0.034489 -0.028086 -0.0029838 0.0035375 -0.00036306 0.016602 0.012234 -0.025639 0.026204 -0.046148 0.035672 -0.02283 -0.024135 
到 -0.0070582 0.082655 0.064263 -0.023867 0.0091723 -0.16316 -0.09006 0.16084 -0.11684 0.15879 0.074557 0.027084 0.060363 -0.16802 0.031795 -0.0028436 -0.035087 -0.1143 0.065786 0.062045 0.042866 0.093632 -0.0119 -0.0489 -0.051195 0.18304 -0.015926 0.0038699 -0.10111 -0.0041061 -0.00084199 0.19665 0.19988 0.081874 0.071554 0.045325 0.079408 -0.14421 0.077622 0.021298 0.031391 -0.031341 -0.00015718 0.00088255 0.11209 -0.08376 0.19902 -0.21516 0.12591 0.070168 
方 0.014561 -0.11752 -0.16234 0.01387 -0.045051 0.344 0.16603 -0.30458 0.22095 -0.28453 -0.12332 -0.038953 -0.1407 0.33875 -0.053405 -0.0058143 0.06318 0.20639 -0.11596 -0.11643 -0.10729 -0.1927 0.02941 0.12235 0.10866 -0.37722 0.05582 0.011307 0.18179 0.020501 -0.036316 -0.33586 -0.38672 -0.17925 -0.093597 -0.08034 -0.14815 0.29419 -0.12742 -0.073369 -0.023784 0.079385 0.0052412 0.043853 -0.22328 0.16229 -0.39748 0.42185 -0.25355 -0.14305 
法 -0.012289 0.10164 0.15894 -0.026841 0.018811 -0.34561 -0.18613 0.2868 -0.23467 0.29351 0.12815 0.0074227 0.15798 -0.32049 0.045102 -0.0021053 -0.061731 -0.19997 0.092149 0.13475 0.10963 0.18016 -0.048974 -0.12552 -0.090681 0.35427 -0.06987 0.011532 -0.17498 -0.036488 0.0066548 0.34311 0.37756 0.18851 0.12204 0.076804 0.16338 -0.25869 0.14527 0.067513 0.032536 -0.073431 -0.023523 -0.036685 0.20117 -0.14514 0.394 -0.41145 0.27022 0.13541 
分 0.01009 -0.027837 -0.028667 0.0042786 -0.011319 0.062876 0.027222 -0.047482 0.057904 -0.04291 -0.021037 -0.0065532 -0.026922 0.055617 -0.0090626 0.0024694 0.016221 0.04593 -0.019481 -0.031899 -0.023526 -0.040268 0.0071008 0.021601 0.014504 -0.068727 0.021212 -0.015001 0.037904 0.002472 -0.0020716 -0.060789 -0.070278 -0.032491 -0.014086 -0.016107 -0.047646 0.060046 -0.025844 -0.015862 -0.019038 0.0078902 0.01056 -0.0099368 -0.04524 0.036263 -0.075244 0.068625 -0.059145 -0.026416 
时 0.0022149 -0.05367 -0.064032 0.0049269 -0.027918 0.11845 0.080149 -0.11523 0.093449 -0.1149 -0.057671 -0.01125 -0.063728 0.11383 -0.027675 -0.01409 0.0052018 0.092045 -0.05379 -0.05131 -0.048597 -0.063815 0.014436 0.051207 0.045682 -0.143 0.035708 0.0015325 0.074538 0.030278 -0.0077935 -0.13685 -0.15739 -0.074248 -0.046363 -0.021564 -0.077677 0.092383 -0.047658 -0.0088197 -0.015409 0.016981 0.015481 0.0033043 -0.085149 0.052488 -0.14399 0.16316 -0.10609 -0.063554 
交 0.014917 0.073012 0.083624 -0.026845 0.013708 -0.19462 -0.10249 0.18034 -0.11468 0.16404 0.052715 0.012699 0.072822 -0.18387 0.00053961 0.015673 -0.039443 -0.10806 0.045015 0.053072 0.060654 0.11654 -0.0055287 -0.065666 -0.050822 0.19163 -0.039389 0.00087926 -0.10604 -0.03587 0.031432 0.19993 0.20432 0.11875 0.067698 0.056624 0.083602 -0.1473 0.056429 0.043264 0.033288 -0.057242 -0.0077407 -0.036889 0.11147 -0.063908 0.21977 -0.22692 0.12874 0.10267 
实 0.0097906 -0.060525 -0.088838 0.015368 -0.016 0.18841 0.099003 -0.16819 0.10268 -0.16319 -0.075003 -0.0035923 -0.086851 0.17659 -0.030465 0.0015681 0.025975 0.11568 -0.057194 -0.045633 -0.056748 -0.076364 0.013758 0.048412 0.04867 -0.19693 0.047932 0.0031358 0.10872 0.028071 -0.0028983 -0.16996 -0.20389 -0.094698 -0.046054 -0.028286 -0.083575 0.1544 -0.073133 -0.041499 -0.029718 0.04629 -0.0039568 0.013989 -0.12331 0.074736 -0.22225 0.22949 -0.13114 -0.094657 
) -0.0018683 -0.050796 -0.060662 -0.0055082 -0.013604 0.11819 0.061136 -0.11893 0.079781 -0.11815 -0.045457 -0.0051872 -0.048822 0.14233 -0.0060435 0.0047947 0.011532 0.090838 -0.031901 -0.042387 -0.040285 -0.059187 0.031321 0.058188 0.033951 -0.15034 0.028078 -0.0084941 0.076786 0.028703 -0.013698 -0.13452 -0.1534 -0.070671 -0.041488 -0.033489 -0.058232 0.10128 -0.050647 -0.021951 -0.018185 0.028531 -0.0062626 0.00033396 -0.08543 0.05504 -0.16202 0.16043 -0.10686 -0.063109 
( -0.0038021 -0.031738 -0.032884 0.0072558 0.0046018 0.079924 0.053161 -0.074816 0.044216 -0.069227 -0.013751 -0.010236 -0.036186 0.078509 -0.0056012 -0.0087569 -0.0018217 0.052899 -0.038574 -0.034031 -0.013824 -0.0373 0.0081753 0.015118 0.024248 -0.074571 0.017896 -0.00013291 0.056194 0.018895 0.0024713 -0.069863 -0.098036 -0.03666 -0.023577 -0.019703 -0.03799 0.074573 -0.032309 -0.025829 -0.023386 0.012229 -0.0049623 0.0042544 -0.062363 0.034176 -0.090371 0.11608 -0.052875 -0.034041 
新 -0.0053041 -0.0088333 -0.0031737 -0.0087356 -0.0014677 0.018237 0.0080622 -0.006483 0.019543 -0.011291 -0.0099836 0.0034566 -0.0075367 0.019873 -0.0059339 0.0013797 0.015012 0.0077362 -0.018588 0.0058272 -0.004107 -0.0042318 0.0030327 0.00067654 -0.00092305 -0.01832 -0.0033938 0.00070163 0.005299 -0.0081682 0.0064514 -0.0033658 -0.0033378 -0.0094318 0.003337 -0.014469 0.00068014 0.0084978 -0.0030357 -0.011544 0.0031688 -0.0074068 0.0082852 0.011461 -0.0086167 -0.0018397 -0.012243 0.013159 -0.0096156 -0.0060626 
者 -0.0029866 0.027847 0.034197 -0.0097369 0.014579 -0.078768 -0.036568 0.071556 -0.051224 0.064022 0.029556 0.0045007 0.033531 -0.08296 0.010363 0.0052106 -0.011478 -0.061622 0.033034 0.028001 0.029324 0.043611 -0.010006 -0.016371 -0.021562 0.089586 -0.0070037 -0.0013599 -0.023734 -0.0032465 0.0043997 0.069008 0.069699 0.045737 0.020119 0.017486 0.046642 -0.063676 0.026505 0.022855 0.0050363 -0.0090993 0.0053176 -0.0078394 0.031108 -0.029221 0.09839 -0.09701 0.051367 0.032228 
多 0.0049116 0.020917 0.016073 0.0043829 0.003387 -0.051854 -0.0098286 0.040882 -0.024857 0.045012 0.014365 0.010341 0.011855 -0.038727 0.0092998 0.011401 -0.010412 -0.026748 0.030764 0.022782 0.0024104 0.0059658 0.008253 -0.012823 -0.01218 0.028455 -0.018146 0.0079897 -0.023627 -0.0027709 0.013014 0.034738 0.048168 0.0087596 0.020863 0.014779 0.025983 -0.033094 0.01209 0.0026592 0.0016559 -0.004118 0.007687 -0.010172 0.027521 -0.027412 0.036184 -0.042508 0.017114 0.010846 
成 0.0040641 -0.053816 -0.052104 0.01494 -0.018034 0.14018 0.078829 -0.12417 0.09992 -0.10984 -0.051536 -0.018787 -0.054573 0.14567 0.00057235 0.011591 0.032394 0.080817 -0.042629 -0.04934 -0.048139 -0.081107 0.013131 0.058382 0.051658 -0.15987 0.018016 -0.007136 0.090029 0.004648 0.0039055 -0.15788 -0.16131 -0.062216 -0.048612 -0.031233 -0.069898 0.12567 -0.066124 -0.028467 -0.022988 0.04285 0.0075986 0.014287 -0.086064 0.040802 -0.18313 0.17722 -0.10808 -0.063136 
合 0.0037055 -0.055322 -0.082653 0.0037064 -0.031688 0.1952 0.090823 -0.15771 0.11381 -0.15192 -0.059091 -0.0087848 -0.068902 0.18023 -0.02196 -0.015431 0.030015 0.12379 -0.063073 -0.067462 -0.072683 -0.094503 0.021665 0.064729 0.071871 -0.18277 0.044578 0.0019649 0.1085 0.029503 -0.014333 -0.18866 -0.2021 -0.089187 -0.068168 -0.044355 -0.080134 0.1409 -0.065043 -0.026526 -0.021124 0.032836 0.020809 0.0082231 -0.097696 0.079378 -0.22353 0.23924 -0.13898 -0.081724 
关 0.00077364 0.03023 0.063092 -0.0059577 0.026003 -0.089469 -0.060878 0.10306 -0.062121 0.096307 0.041792 0.0029651 0.053093 -0.11359 0.015246 0.013513 -0.011998 -0.077143 0.027787 0.037889 0.022054 0.039106 -0.0023895 -0.051262 -0.029355 0.11208 -0.0086009 0.00063693 -0.068636 -0.0023979 0.0077213 0.10609 0.11441 0.044675 0.033215 0.036746 0.052584 -0.095457 0.046807 0.0094735 0.0050214 -0.027962 -0.012691 -0.014806 0.06415 -0.041624 0.13534 -0.13718 0.082288 0.059033 
家 0.0064384 0.099995 0.11052 -0.014712 0.021947 -0.25256 -0.13305 0.2289 -0.17186 0.20239 0.094233 0.017291 0.1189 -0.24332 0.034271 0.00078222 -0.041854 -0.15301 0.090956 0.073954 0.082696 0.12816 -0.041425 -0.081648 -0.070673 0.26472 -0.055169 0.002094 -0.14651 -0.018432 0.024102 0.24895 0.28201 0.11775 0.063019 0.054476 0.1277 -0.20323 0.090181 0.044316 0.026487 -0.072202 -0.017912 -0.026163 0.16162 -0.10534 0.30787 -0.31882 0.18164 0.10948 
作 0.0033289 -0.022912 -0.014795 -0.0058015 -0.00015598 0.051556 0.03049 -0.044771 0.029936 -0.046552 -0.017416 0.0052716 -0.032546 0.055763 -0.011226 -0.0040159 0.014235 0.02814 -0.017629 -0.024558 -0.012471 -0.028081 0.0045763 0.020329 0.021471 -0.060332 0.016171 0.0020773 0.036118 0.00079968 -0.00015196 -0.061872 -0.061727 -0.022527 -0.0075826 -0.010175 -0.027259 0.045442 -0.023247 -0.0056993 -0.0050861 0.012158 0.0037035 0.0055687 -0.030185 0.027448 -0.067814 0.073809 -0.040609 -0.02584 
前 0.011435 -0.0098452 -0.003435 0.010111 -0.0068376 0.013706 0.0021078 -0.0082019 0.0049873 -0.0013107 0.0095495 0.0087162 0.00091251 0.018204 0.0037261 0.0057708 0.014822 0.0099741 -0.00026965 -0.0069665 0.0028269 -0.0080317 -0.0088538 0.014167 0.0096771 -0.015233 0.01148 -0.0077729 0.0038505 0.0026869 -0.0020564 -0.021876 -0.030082 -0.015953 0.0059548 0.0032111 0.0036172 0.00948 -0.0021348 0.0012636 -0.019223 -0.0039583 -0.0017299 -0.0017507 0.0051296 -0.0072325 -0.015162 0.028467 -0.002722 0.0060385 
财 0.001565 -0.031853 -0.05353 0.0045692 -0.017084 0.11028 0.051884 -0.096977 0.068651 -0.099177 -0.031804 0.0035473 -0.053053 0.10555 -0.026562 -0.0043814 0.0092653 0.064507 -0.040417 -0.037874 -0.022625 -0.04702 0.025844 0.036186 0.027115 -0.12809 0.014537 -0.010215 0.048698 0.011945 -0.007797 -0.092868 -0.11578 -0.056511 -0.042861 -0.034972 -0.053181 0.090158 -0.049215 -0.0053495 -0.022057 0.017128 0.0085906 0.0045614 -0.075495 0.030847 -0.11951 0.12721 -0.070304 -0.046588 
所 -0.0072527 0.0076761 0.01274 -0.0022966 0.00061483 -0.0032316 -0.0050189 0.0029918 -0.00066677 0.0021486 -0.0029455 0.0044885 -0.0059601 -0.0041477 -0.0049131 0.0080381 -0.0020044 -0.0049974 -0.0010895 -0.0051082 0.011487 0.014187 -0.0043572 0.0029998 -0.0072 0.0047658 0.0046678 -0.0051201 -0.0083188 -0.01225 -0.0035236 0.0049675 0.0056049 0.0028476 -0.0036194 0.0032618 -0.0015936 -0.0025767 -0.01084 0.0058385 0.0028342 0.0022406 -0.0024789 0.008005 0.0011321 0.0065083 0.00080807 0.008389 0.0063533 0.0017832 
可 0.0021475 -0.098695 -0.10682 2.0224e-06 -0.016789 0.27565 0.12509 -0.24381 0.17009 -0.21979 -0.088763 -0.012038 -0.11745 0.2541 -0.01964 -0.010534 0.036705 0.17565 -0.0852 -0.095133 -0.08766 -0.13476 0.032397 0.082994 0.077117 -0.26537 0.059316 -0.0010789 0.15452 0.038086 -0.016488 -0.25043 -0.30804 -0.13068 -0.085233 -0.05643 -0.12581 0.21899 -0.10403 -0.054877 -0.037644 0.069218 0.0010768 0.018674 -0.16487 0.11227 -0.30936 0.33723 -0.20339 -0.12324 
用 0.01084 -0.019779 -0.041154 -0.002459 -0.004491 0.070342 0.043166 -0.057825 0.051459 -0.061459 -0.018994 -0.00017112 -0.01921 0.0698 -0.0067233 -0.010436 0.00034746 0.045266 -0.028026 -0.021291 -0.017391 -0.044797 0.0054382 0.022732 0.01719 -0.07361 0.010267 0.0090455 0.031604 0.007231 -0.0033506 -0.060295 -0.079466 -0.035806 -0.021607 -0.027868 -0.030067 0.058419 -0.039618 -0.00027557 -0.021505 0.017072 -0.0066943 -0.001786 -0.041493 0.027614 -0.083832 0.091496 -0.05163 -0.028244 
保 0.022765 -0.074931 -0.086847 0.019631 -0.013564 0.20393 0.10905 -0.16703 0.14364 -0.17585 -0.065694 -0.001268 -0.098618 0.20362 -0.033353 -0.00067305 0.024154 0.13648 -0.061504 -0.051119 -0.060219 -0.08674 0.024822 0.059931 0.040849 -0.19467 0.017627 -2.2619e-05 0.11667 0.028523 -0.030021 -0.1775 -0.22714 -0.10377 -0.063815 -0.055886 -0.088559 0.141 -0.077809 -0.015809 -0.035377 0.0309 0.022605 0.02388 -0.14079 0.074266 -0.24313 0.25033 -0.16605 -0.081114 
定 0.010661 -0.03514 -0.012842 0.0094302 -0.0053946 0.032408 0.020658 -0.040124 0.02463 -0.039171 -0.015375 0.0037838 -0.0322 0.035081 -0.021205 -0.0076565 -0.0002723 0.041708 -0.0040792 -0.0047831 -0.013998 -0.014999 0.012041 0.027496 -0.0041617 -0.073549 0.029889 0.016768 0.031926 0.0097228 -0.022896 -0.061879 -0.070382 -0.020531 -0.01895 0.007295 -0.012484 0.026788 -0.01776 -0.020101 -0.0084487 -0.0027656 -0.0062264 -0.0062785 -0.022277 0.0056012 -0.072383 0.065135 -0.033664 -0.0073811 
本 -0.00071254 0.021312 0.024421 -0.010591 0.021566 -0.072469 -0.024883 0.06815 -0.051269 0.043393 0.003462 0.021183 0.028497 -0.076354 0.023971 -0.015462 -0.02048 -0.056373 0.031567 0.03213 0.033399 0.031523 -0.00028053 -0.0022505 -0.013805 0.055141 -0.0059297 -0.0055103 -0.020027 -0.022787 0.024425 0.068287 0.065975 0.03857 0.009803 0.0083528 0.0279 -0.055616 0.025468 0.014433 0.010098 -0.020173 -0.0042036 -0.018393 0.043145 -0.022095 0.07362 -0.087198 0.064083 0.040934 
款 -0.0031634 0.016081 0.012067 -0.011321 0.007588 -0.050004 -0.012347 0.040727 -0.035986 0.042774 0.0099776 -0.0080455 0.032598 -0.051659 0.0071722 -0.00074585 0.0052858 -0.027406 0.02709 0.012058 0.011916 0.021986 -0.0098833 -0.0059036 -0.03009 0.047673 -0.0047622 0.0036826 -0.019896 0.0038663 0.0096207 0.036056 0.041606 0.030712 0.00058549 0.0075657 0.013022 -0.044071 0.018504 0.016589 0.014087 -0.0071539 0.0024439 -0.013515 0.02646 -0.016616 0.052049 -0.059142 0.014944 0.021989 
收 0.0012011 -0.017628 -0.0049623 0.0067016 -0.0034304 0.045319 0.030143 -0.051665 0.024595 -0.044989 -0.015373 0.0022223 -0.022911 0.050456 -0.00061101 0.0048626 0.01397 0.025169 -0.011961 -0.017927 -0.019009 -0.015017 0.0062734 0.022284 0.011146 -0.037821 0.0071879 0.0075602 0.020241 0.0086437 0.0063 -0.039679 -0.05248 -0.023611 -0.01472 -0.012739 -0.017727 0.041556 -0.013279 -0.0091932 -0.006825 0.014281 0.0039201 0.0044844 -0.024337 0.0044087 -0.045684 0.050552 -0.037954 -0.015327 
% 0.0068906 -0.088167 -0.11581 0.026925 -0.026715 0.24409 0.11265 -0.23129 0.17176 -0.21172 -0.10711 -0.031086 -0.10607 0.24342 -0.037878 -0.0066801 0.039141 0.14913 -0.082512 -0.091202 -0.0623 -0.11456 0.036801 0.079205 0.060689 -0.27459 0.041755 -0.013984 0.14594 0.03145 -0.01392 -0.2451 -0.27193 -0.1295 -0.07541 -0.061431 -0.12715 0.20816 -0.092857 -0.022054 -0.027572 0.060314 0.0061641 0.010458 -0.14205 0.095703 -0.28949 0.31848 -0.18063 -0.097073 
易 -0.0048805 0.0078312 0.020165 0.0032349 0.0051753 -0.027645 -0.018389 0.034066 -0.030555 0.028359 0.010937 -0.0010403 0.017355 -0.037694 -0.0021447 -0.0051252 -0.0091243 -0.027994 0.012093 0.024742 0.014683 0.0074701 -0.0050939 -0.0089648 -0.0088358 0.027854 -0.011555 -0.0085997 -0.015395 -0.01033 0.0026268 0.024771 0.026953 0.010636 -0.0031708 -0.0012314 0.022133 -0.037865 0.013964 0.010076 0.001519 -0.0036359 -0.0076633 0.005228 0.025371 -0.024902 0.047404 -0.04826 0.02038 0.01671 
证 0.013074 -0.018693 -0.0050634 0.0011652 -0.020071 0.046339 0.026933 -0.026558 0.01486 -0.046128 -0.026701 0.00099127 -0.019179 0.045441 -0.0041689 0.0044384 0.0020523 0.039261 -0.013201 -0.0029254 -0.021454 -0.02695 0.017878 -0.00037477 0.020764 -0.059617 0.021464 -0.0038814 0.015861 0.014334 -0.010501 -0.05406 -0.055148 -0.025288 -0.012709 -0.025765 -0.04084 0.047895 -0.0057005 -0.015484 -0.0063968 0.0058604 0.0058066 0.0062327 -0.024014 0.0052408 -0.065964 0.052918 -0.047577 -0.015482 
2 -0.019018 0.082647 0.11033 -0.018043 0.0137 -0.27819 -0.14871 0.2188 -0.17143 0.2275 0.10689 0.0078481 0.115 -0.24832 0.015162 0.0076368 -0.030279 -0.17143 0.090417 0.091657 0.087382 0.12826 -0.030361 -0.087806 -0.079234 0.28689 -0.040258 0.016022 -0.16474 -0.0245 0.031124 0.26297 0.29057 0.13552 0.086405 0.062231 0.12249 -0.20492 0.091162 0.038789 0.017607 -0.065276 -0.0032226 -0.025372 0.14574 -0.12378 0.31106 -0.33265 0.21329 0.11757 
后 -0.0046966 0.065625 0.072585 0.003627 0.021255 -0.17239 -0.084219 0.14614 -0.104 0.12339 0.059183 0.012345 0.059224 -0.14747 0.005499 0.013135 -0.0066512 -0.097812 0.06493 0.061222 0.045222 0.094177 -0.0080551 -0.06566 -0.060641 0.16101 -0.035752 0.0057456 -0.095219 -0.020721 0.014014 0.17343 0.17393 0.087099 0.047487 0.04142 0.067893 -0.13493 0.06445 0.01497 0.014282 -0.032119 -0.0079228 0.0021389 0.10289 -0.077849 0.1977 -0.20488 0.13263 0.063928 
过 0.012359 -0.020983 -0.02575 -0.0038754 -0.010746 0.040853 0.026339 -0.052282 0.043222 -0.043353 -0.0053164 0.0053685 -0.022355 0.051306 0.0011064 -0.0078413 -0.0033722 0.027487 -0.013943 -0.030097 -0.015646 -0.029318 -0.0074832 0.027042 0.017717 -0.068523 0.0091018 -0.0050113 0.018483 0.0070601 0.0047367 -0.048563 -0.05653 -0.040479 -0.016916 -0.0046601 -0.030221 0.041368 -0.020897 -0.0057834 -0.00077893 -0.0013017 -0.010048 0.00059179 -0.028548 0.023129 -0.075114 0.061031 -0.042058 -0.034704 
险 -0.0024579 0.038114 0.027921 0.0034956 0.0048823 -0.065781 -0.040631 0.061608 -0.044895 0.045776 0.025309 0.0043762 0.027562 -0.041883 -0.0028898 -0.0010176 -0.01414 -0.039216 0.019805 0.020967 0.023985 0.037541 -0.015991 -0.028467 -0.020677 0.078052 -0.010886 0.011961 -0.030852 -0.010122 -0.00024774 0.060311 0.066615 0.035128 0.024473 0.0080084 0.032517 -0.049533 0.016376 0.0066256 0.0016687 -0.012658 -0.0019187 0.00057316 0.047084 -0.017745 0.073506 -0.074904 0.038905 0.02601 
进 0.014155 -0.071045 -0.077973 -0.00081395 -0.022063 0.17009 0.096228 -0.16224 0.12627 -0.15361 -0.073603 -0.018434 -0.069174 0.17867 -0.036613 -0.0089328 0.015057 0.10678 -0.06364 -0.068892 -0.069596 -0.081589 0.039002 0.063121 0.042588 -0.18974 0.047293 0.0045884 0.11243 0.024441 -0.025361 -0.19713 -0.20478 -0.099536 -0.066278 -0.035905 -0.083982 0.151 -0.083881 -0.038591 -0.022511 0.03031 0.0055949 0.02062 -0.12196 0.06928 -0.21337 0.23952 -0.12365 -0.068755 
高 0.0060955 -0.040684 -0.037744 0.010015 -0.0052081 0.10095 0.046432 -0.069975 0.060146 -0.068461 -0.030798 -0.0047346 -0.044851 0.086559 -0.0076734 -0.0096107 0.013138 0.046835 -0.029998 -0.02378 -0.030552 -0.025137 -0.0042542 0.040002 0.014452 -0.093958 0.02848 -0.01005 0.049449 -0.0016084 -0.003908 -0.089019 -0.097986 -0.051286 -0.016556 -0.0064967 -0.032472 0.061782 -0.031732 -0.00022806 -0.0067551 0.014275 0.00030322 0.023744 -0.051429 0.03723 -0.10417 0.099075 -0.068678 -0.040155 
其 -0.010039 0.024946 0.025335 -0.0093623 -0.0050267 -0.066189 -0.043481 0.048519 -0.038378 0.060701 0.026495 0.011082 0.036271 -0.053627 0.0082677 -0.0013085 -0.017544 -0.030323 0.019536 0.018994 0.020598 0.034713 -0.0018737 -0.030216 -0.026624 0.070495 -0.0071125 0.0013787 -0.031035 -0.013585 -0.0084725 0.062057 0.066467 0.037599 0.017566 0.018103 0.042374 -0.051886 0.017657 0.00060417 0.0054218 -0.011087 0.0036141 -0.019814 0.039261 -0.021336 0.062076 -0.076997 0.046194 0.019225 
万 -0.0029935 0.0060431 0.007601 -0.0085685 0.0083244 -0.019241 -9.3544e-05 0.021703 -0.0099855 0.010935 0.0035695 -0.00089034 0.0063377 -0.024056 0.0029821 0.0058489 -0.0048386 -0.02287 0.015345 0.012287 0.0025962 0.004473 0.0026487 -0.0017312 -0.0034281 0.014718 -0.012329 -0.005761 -0.017593 -0.002053 -0.0054194 0.013166 0.016593 0.0074187 0.0062821 -0.0065328 -0.0037842 -0.02197 -0.00047845 0.010545 1.3956e-05 0.0073564 0.0014201 -0.0021684 0.027129 -0.0048927 0.024886 -0.0118 0.012471 0.014961 
就 -0.00054934 0.021598 0.011114 0.0049551 0.0043237 -0.051266 -0.020748 0.034598 -0.027844 0.031293 0.014094 -0.00034172 0.023542 -0.038072 -0.0047916 0.0092794 -0.0038583 -0.025368 0.010482 0.012484 0.0045859 0.031512 -0.0054494 -0.015436 -0.0033463 0.039919 -0.014482 0.00075851 -0.019464 0.0046056 -0.0089734 0.039197 0.039307 0.024583 -0.0080098 0.0090402 0.017959 -0.036112 0.022879 0.014233 -0.0070622 0.0041288 0.005758 0.012996 0.021947 -0.00101 0.056057 -0.046275 0.028387 0.012443 
等 -0.0063018 -0.019529 -0.029217 -0.0075836 -0.0090318 0.057667 0.019138 -0.046729 0.043277 -0.043245 -0.012969 0.0056656 -0.032912 0.033458 -0.0059611 -0.010924 0.0060828 0.046491 -0.018724 -0.021126 -0.03579 -0.02671 0.0059867 0.020163 0.012598 -0.046563 -0.0076455 0.0083029 0.03549 0.0079965 -0.018144 -0.065082 -0.067586 -0.01935 -0.030709 -0.013668 -0.018238 0.047383 -0.018552 -0.0040613 -0.0058437 0.011254 -0.0014848 -0.0067994 -0.014792 0.024193 -0.067526 0.049178 -0.050806 -0.011635 
我 0.0061946 0.0064741 0.021492 -0.00011008 0.0043791 -0.054553 -0.031253 0.040605 -0.032523 0.032725 0.019879 -0.0018626 0.02441 -0.049853 0.0070536 0.0081212 -0.0040755 -0.038202 0.019261 0.0090618 0.026419 0.019736 0.0037602 -0.015617 -0.012494 0.040719 -0.0050734 0.00373 -0.013592 -0.0010217 0.011569 0.036337 0.042607 0.014703 0.025253 0.023102 0.030182 -0.052324 0.021861 0.0019837 0.0014172 -0.018086 0.0050723 -0.016944 0.030458 -0.013144 0.055844 -0.067001 0.041783 0.022053 
利 -0.0059632 -0.015923 -0.024094 -0.0025767 0.0033839 0.042233 0.022213 -0.048171 0.033386 -0.037471 -0.012612 0.0033998 -0.011141 0.0364 -0.0068457 -0.0063267 0.010763 0.032768 -0.012744 -0.015409 -0.014351 -0.01672 -0.0042662 0.02592 0.012786 -0.044218 0.0011307 -0.010473 0.013869 -0.00054321 0.0060497 -0.050621 -0.044233 -0.01393 -0.019072 -0.008658 -0.020306 0.036282 -0.01346 -0.0020678 -0.0079943 0.01937 0.0041161 0.0051765 -0.028884 0.0049478 -0.046884 0.05419 -0.032319 -0.022289 
月 -0.0027634 -0.0052784 -0.0048248 -0.0055111 0.0069663 0.021186 0.0061235 -0.012009 0.0042343 -0.0074528 0.0025837 -0.0086658 -0.003587 0.013298 -0.0048894 -0.005099 0.016007 0.0066141 -0.0010009 -0.0038071 -0.0060252 -0.0041725 -0.0012175 -0.0030919 0.0029169 -0.015843 0.0052453 -0.0043035 0.011805 0.0066571 -0.0068797 -0.012823 -0.011998 -0.0040592 -5.9173e-05 0.0051466 0.001389 0.0043082 0.0038232 -0.0045884 -0.0047257 -0.0037841 0.00091002 0.00076275 0.0042468 -0.0032994 -0.01776 0.0066719 -0.010908 0.0027814 
1 -0.016134 0.24058 0.29676 -0.021523 0.061698 -0.68741 -0.37824 0.59868 -0.44897 0.59416 0.26029 0.044761 0.29479 -0.66718 0.064864 0.033771 -0.11114 -0.44717 0.22584 0.23112 0.21913 0.35069 -0.082136 -0.23769 -0.19992 0.74547 -0.13785 0.011901 -0.38819 -0.084178 0.046227 0.69095 0.78868 0.34458 0.19678 0.15303 0.31826 -0.56629 0.26146 0.098561 0.069891 -0.15413 -0.02322 -0.065726 0.43426 -0.28092 0.80937 -0.87518 0.53781 0.30278 
同 0.0017841 -0.047894 -0.049265 -0.00936 -0.017246 0.12992 0.069967 -0.091814 0.075737 -0.10488 -0.03393 -0.016239 -0.051853 0.113 -0.013215 -0.0023078 0.01188 0.074381 -0.033139 -0.045626 -0.042216 -0.077186 0.016813 0.05998 0.035201 -0.14346 0.022015 0.01303 0.075586 0.020016 -0.013721 -0.11745 -0.14478 -0.049882 -0.037179 -0.022006 -0.048546 0.10355 -0.029789 -0.026479 -0.015684 0.03221 0.0029477 0.0044734 -0.071859 0.038988 -0.15333 0.15026 -0.092689 -0.045805 
也 -0.00037548 -0.0021875 0.0082365 0.0062548 0.01054 -0.005059 -0.015898 0.0060566 -0.021031 0.00032602 0.0015776 -0.0049975 0.018981 -0.029252 0.0018907 -0.0080555 -0.0046622 0.0048857 0.0091123 0.00077573 0.0078217 0.021214 0.0060457 0.011672 -0.009292 0.021868 -0.010576 -0.00061805 -0.00083937 -0.013545 0.0076447 0.0010714 0.016325 0.0086386 -0.007011 0.0013944 0.019377 -0.0043344 0.0084056 0.019118 0.0034906 -0.0076144 0.0014585 0.0048951 0.0082535 -0.0010127 0.015343 -0.0072339 0.00067534 0.0087736 
风 -0.0015695 -0.022064 -0.038138 -0.0092242 -0.0033287 0.060964 0.034924 -0.046601 0.034174 -0.057099 -0.037389 -0.0077489 -0.021385 0.058987 0.010459 0.0039532 0.014855 0.024587 -0.01913 -0.027576 -0.021069 -0.028031 0.0083159 0.024101 0.014633 -0.062366 0.021424 0.0060881 0.024114 0.0065976 -0.0093916 -0.063093 -0.061366 -0.017602 -0.035019 -0.019889 -0.021466 0.066881 -0.029162 -0.0076449 0.0017075 -0.0015644 0.016738 -0.0094635 -0.028622 0.022881 -0.081325 0.072998 -0.051831 -0.029672 
规 -0.0041746 0.03062 0.068609 -0.0095657 0.017872 -0.1192 -0.068633 0.10127 -0.090185 0.11364 0.047953 0.004316 0.05101 -0.13082 0.010902 -0.002198 -0.015784 -0.06343 0.04717 0.029078 0.039174 0.054924 -0.017775 -0.046574 -0.054302 0.12466 -0.017059 -0.0052285 -0.061899 -0.015457 0.0011666 0.1221 0.13069 0.056365 0.041072 0.039293 0.052303 -0.11038 0.037764 0.018261 0.0074161 -0.033627 -0.009606 -0.015371 0.074969 -0.051009 0.13396 -0.13987 0.094127 0.051844 
开 -0.0086635 0.04416 0.031992 -0.0087103 -0.011735 -0.086731 -0.042309 0.074686 -0.03667 0.058898 0.0352 0.016772 0.034867 -0.067298 0.022002 -0.0087386 0.0083397 -0.046889 0.0039806 0.029396 0.015696 0.032298 -0.015974 -0.01162 -0.023757 0.084023 -0.0036766 0.010415 -0.043793 -0.0026131 0.0015384 0.088304 0.068943 0.020258 0.011536 6.5647e-05 0.045613 -0.060023 0.043465 0.020691 -0.0068432 -0.022842 -0.0063302 -0.02419 0.043717 -0.012965 0.099817 -0.11126 0.0411 0.023492 
; -0.0010794 -0.072518 -0.072633 0.0083123 -0.0013655 0.1964 0.11753 -0.18783 0.13447 -0.1908 -0.074253 -0.013274 -0.091147 0.1894 -0.019966 0.0048581 0.016321 0.14058 -0.059827 -0.074339 -0.074744 -0.094483 0.029078 0.077064 0.073019 -0.21532 0.047788 -0.0077829 0.10699 0.0096485 -0.029301 -0.19585 -0.24198 -0.090622 -0.072564 -0.043255 -0.10312 0.16538 -0.070358 -0.02097 -0.022645 0.035048 0.0058509 0.01638 -0.1228 0.086188 -0.2476 0.24108 -0.15632 -0.085643 
机 -0.0049582 -0.054659 -0.050943 0.00093089 -0.014822 0.13514 0.061424 -0.13317 0.085209 -0.10081 -0.042389 0.0052402 -0.042233 0.13282 -0.016182 -0.012873 0.024149 0.086998 -0.051889 -0.058847 -0.038992 -0.072528 0.0077078 0.036825 0.04482 -0.14772 0.027318 0.0010747 0.075547 0.010077 -0.00096134 -0.12576 -0.15351 -0.056676 -0.039437 -0.035026 -0.065351 0.10614 -0.034011 -0.015631 -0.004812 0.045285 0.017676 0.012863 -0.087386 0.064102 -0.15696 0.16666 -0.10226 -0.05278 
监 0.0089737 0.057368 0.079204 -0.0054472 0.02968 -0.167 -0.10037 0.1594 -0.10085 0.15221 0.075231 0.0073826 0.084327 -0.17693 0.017991 0.016812 -0.019778 -0.11757 0.058718 0.067067 0.060197 0.090366 -0.022918 -0.047575 -0.0627 0.19554 -0.044891 0.0020958 -0.10928 -0.013941 0.013944 0.16853 0.21559 0.095721 0.04087 0.031991 0.084157 -0.14357 0.067777 0.042097 0.032057 -0.046184 -0.021115 -0.0092977 0.095257 -0.084799 0.21895 -0.22189 0.14009 0.078598 
据 -0.013565 0.040972 0.032381 0.0056152 -0.0038096 -0.09536 -0.053736 0.087914 -0.049821 0.056971 0.033245 0.0089552 0.031716 -0.077305 -0.010338 -0.00082503 -0.01131 -0.043288 0.02099 0.030656 0.019267 0.034952 -0.0030124 -0.014943 -0.018631 0.084139 -0.0074202 0.0017161 -0.049712 -0.0012736 0.0077411 0.078147 0.10422 0.051083 0.020381 0.036005 0.040583 -0.065184 0.035559 0.017512 -0.0036494 -0.0071544 0.0080527 -0.0081299 0.048025 -0.045634 0.10655 -0.12157 0.048302 0.035769 
事 -0.0048306 0.017702 0.026612 -0.004556 0.0095228 -0.046674 -0.030763 0.050128 -0.03155 0.046429 0.027061 0.009593 0.023679 -0.045666 0.0074764 0.0061638 -0.0066908 -0.029245 0.026883 0.022138 0.0094143 0.026117 -0.00073487 -0.025746 -0.015887 0.051678 -0.019157 -0.0036997 -0.028357 -0.00093668 0.0053416 0.058916 0.072372 0.0323 0.031394 0.006768 0.025753 -0.042709 0.017168 0.0046643 0.0096823 -0.011456 0.0012358 -0.0022304 0.031421 -0.025009 0.067073 -0.062358 0.037616 0.025341 
联 0.01356 -0.014872 -0.035154 -0.0033172 -0.0095393 0.082051 0.029034 -0.066168 0.038768 -0.061812 -0.031513 0.010712 -0.029937 0.067851 -0.0068967 -0.0019227 0.017381 0.047649 -0.017258 -0.03191 -0.033561 -0.038203 0.01904 0.027754 0.027455 -0.084522 0.0088424 2.95e-05 0.054757 0.012357 -0.0086058 -0.072746 -0.083975 -0.045916 -0.025093 -0.0076843 -0.032896 0.059664 -0.029378 -0.022248 -0.011187 0.019832 -0.016815 0.0127 -0.040071 0.039215 -0.069421 0.095896 -0.048613 -0.021726 
目 -0.0013509 -0.038759 -0.042219 0.0075471 -0.018013 0.1084 0.05833 -0.093065 0.077844 -0.083097 -0.037582 -0.0027187 -0.045165 0.1111 -0.010523 0.0017874 0.024922 0.074181 -0.050033 -0.044791 -0.026299 -0.047514 0.0051657 0.023878 0.025239 -0.11241 0.021462 -0.0027672 0.051522 0.0019126 -0.0045975 -0.11178 -0.11184 -0.057649 -0.03355 -0.035102 -0.037609 0.08858 -0.037422 -0.011626 -0.0098585 0.034157 0.019253 0.0051824 -0.065812 0.041855 -0.11772 0.12144 -0.078787 -0.038236 
息 0.00063736 0.0058986 0.024657 -0.0027339 0.0038668 -0.046434 -0.022403 0.054075 -0.027356 0.032822 0.0066861 0.023052 0.035121 -0.057648 0.0042986 0.011742 -0.014454 -0.020563 0.0066632 0.025521 0.016351 0.021252 -0.0032297 -0.017951 -0.0075713 0.051584 0.0010224 -0.0039647 -0.031327 -0.011241 0.0055379 0.050298 0.06783 0.04366 0.023085 0.019509 0.023739 -0.04228 0.012769 -0.0010407 -0.0013977 -0.011733 -0.0016134 -0.0094427 0.044028 -0.016521 0.067439 -0.045643 0.035171 0.017876 
通 0.0029339 -0.027656 -0.049598 0.015938 -0.0068928 0.08898 0.05334 -0.094696 0.06813 -0.094057 -0.048133 -0.011402 -0.042814 0.098811 -0.0051264 0.011047 0.0022767 0.064758 -0.034139 -0.041665 -0.028469 -0.062757 0.0056634 0.027748 0.026609 -0.1186 0.025833 0.003502 0.060835 0.00051639 0.0035175 -0.11618 -0.11088 -0.05771 -0.024681 -0.023089 -0.048304 0.072911 -0.034725 -0.013039 -0.018258 0.015381 0.011664 0.002888 -0.046931 0.037515 -0.11637 0.11219 -0.081173 -0.049344 
全 -0.0028595 -0.083414 -0.12115 0.0045976 -0.019507 0.26253 0.13863 -0.22048 0.16921 -0.22393 -0.098944 -0.029226 -0.11836 0.25329 -0.023569 -0.02126 0.053707 0.15394 -0.088367 -0.089419 -0.096288 -0.12746 0.026538 0.10234 0.084977 -0.27275 0.054795 -0.021162 0.14864 0.022218 -0.017658 -0.25768 -0.29051 -0.1354 -0.080589 -0.068564 -0.1276 0.20861 -0.10927 -0.027213 -0.019287 0.045491 -0.0045047 0.016518 -0.14573 0.11399 -0.28669 0.31998 -0.20576 -0.10636 
数 -0.0032484 -0.01648 -0.024159 0.01182 -0.0026631 0.054793 0.031009 -0.038625 0.033573 -0.04948 -0.012643 -0.011478 -0.02397 0.053551 -0.0059149 0.00267 0.01904 0.035916 -0.012468 -0.018075 -0.019073 -0.038742 0.0079554 0.022081 0.0086764 -0.054719 0.015361 0.00091385 0.026654 0.010425 -0.00086624 -0.057103 -0.066533 -0.023481 -0.019456 -0.010711 -0.017708 0.051977 -0.018452 -0.01088 0.0034645 0.015696 -6.2207e-05 -0.0050283 -0.030949 0.030658 -0.064769 0.076606 -0.047293 -0.023905 
提 0.00046148 -0.011251 -0.015875 0.0019805 -0.001912 0.034112 0.023366 -0.040178 0.026209 -0.028727 -0.014329 0.0006427 -0.025615 0.04641 -0.0038843 0.0058793 0.0033999 0.017403 0.0023 -0.011581 -0.014289 -0.017651 0.0029805 0.00075339 0.012519 -0.044728 0.0017159 0.0038722 0.025929 -0.0028477 -0.0014074 -0.032021 -0.039395 -0.018402 0.0033019 -0.01675 -0.028195 0.028424 -0.022991 -0.00923 -0.013975 0.015285 -0.00065984 0.0065842 -0.021634 0.0082469 -0.036249 0.04659 -0.023932 -0.010012 
自 0.0041764 0.016202 0.01049 -1.9114e-05 0.0053731 -0.027854 -0.018658 0.03009 -0.027072 0.031551 0.0081375 0.012235 0.0019306 -0.020319 -0.0018143 0.010434 -0.0075939 -0.026862 0.0068057 0.018129 0.013659 0.0067937 -0.0041735 -0.013037 -0.0088844 0.040857 -0.0037744 -0.008075 -0.02474 0.001168 -0.0053798 0.023048 0.02924 0.0082374 0.014125 0.016974 0.014939 -0.032911 0.010126 0.0067448 -0.012706 -0.0019182 0.0011012 0.011582 0.015497 -0.0074039 0.039869 -0.046544 0.030591 0.012795 
部 0.00076948 0.095723 0.13721 -0.028114 0.0069969 -0.28012 -0.1423 0.27491 -0.1813 0.25141 0.092069 0.0093937 0.12702 -0.296 0.027316 0.003817 -0.028005 -0.19491 0.10568 0.11554 0.07888 0.15503 -0.01515 -0.11076 -0.09239 0.30347 -0.071281 0.014005 -0.17756 -0.021329 0.036229 0.30657 0.34825 0.16483 0.080048 0.086441 0.13773 -0.22671 0.11345 0.030165 0.048604 -0.063278 -0.0092247 -0.0071183 0.19635 -0.1289 0.35044 -0.39042 0.23922 0.11219 
动 -0.00036926 -0.13758 -0.17233 0.003818 -0.021402 0.43827 0.22505 -0.3832 0.28229 -0.35965 -0.16226 -0.04784 -0.20168 0.41364 -0.04595 -0.02351 0.064762 0.26525 -0.12389 -0.16436 -0.15659 -0.20684 0.033487 0.15091 0.14265 -0.44098 0.087105 -0.013823 0.24767 0.043844 -0.042021 -0.43019 -0.48863 -0.20988 -0.11391 -0.10331 -0.21549 0.3576 -0.16115 -0.049006 -0.038831 0.11309 0.016528 0.023085 -0.2733 0.18837 -0.51051 0.5232 -0.32628 -0.1748 
场 0.018184 -0.10833 -0.11553 0.010264 -0.022842 0.25648 0.12628 -0.23407 0.16974 -0.21085 -0.085279 -0.0072335 -0.1027 0.24837 -0.041116 -0.028798 0.058788 0.17383 -0.10068 -0.1009 -0.073336 -0.15108 0.016845 0.099078 0.078392 -0.26345 0.040606 -0.0058378 0.14137 0.030403 -0.038684 -0.27219 -0.30185 -0.15271 -0.064225 -0.06121 -0.13317 0.19332 -0.11542 -0.038274 -0.045148 0.077794 0.0057898 0.0054137 -0.15575 0.12101 -0.32322 0.34484 -0.19719 -0.1296 
还 -0.00026546 0.11142 0.10875 -0.013459 0.031351 -0.24214 -0.15825 0.24945 -0.15897 0.23549 0.088348 0.0065851 0.12997 -0.25202 0.011031 -0.0050944 -0.036689 -0.16042 0.095133 0.077619 0.092129 0.12545 -0.044057 -0.0867 -0.062057 0.27308 -0.037919 0.0084639 -0.14406 -0.031354 0.019671 0.28 0.30573 0.13042 0.067679 0.065917 0.11998 -0.20035 0.11779 0.036064 0.041856 -0.044597 0.0061205 -0.036649 0.17458 -0.11782 0.32067 -0.31204 0.19392 0.1233 
及 0.0094118 -0.0083586 -0.047891 0.01291 0.012231 0.063135 0.044808 -0.064978 0.038123 -0.065961 -0.0054425 0.0064179 -0.026161 0.065992 0.012269 0.0044293 0.017732 0.053115 -0.0098795 -0.02143 -0.0153 -0.02889 0.0037874 0.040368 0.0025322 -0.05826 0.0063555 0.00083046 0.022542 0.0093627 -0.010278 -0.072246 -0.060418 -0.047637 -0.0039898 -0.0015892 -0.031953 0.0716 -0.023713 -0.0056505 -0.022001 0.022157 -0.0018925 0.020825 -0.049038 0.026638 -0.090458 0.089863 -0.056063 -0.040526 
工 -0.0013782 -0.05619 -0.086013 0.028419 -0.013895 0.16355 0.11052 -0.16524 0.10274 -0.13306 -0.074283 -0.0066111 -0.06456 0.15668 -0.0069523 0.010193 0.0091471 0.12299 -0.051253 -0.046412 -0.058125 -0.10017 0.039791 0.066801 0.03209 -0.1754 0.021983 0.004968 0.098753 0.02829 -0.0093176 -0.16814 -0.19124 -0.10713 -0.069068 -0.030014 -0.08268 0.12321 -0.07954 -0.044693 -0.036154 0.039599 -0.011896 0.03284 -0.11805 0.054746 -0.18668 0.21546 -0.15251 -0.08406 
商 -0.010898 0.015106 0.023782 -0.014551 0.0047222 -0.045909 -0.027465 0.042841 -0.031954 0.046378 0.011861 0.0095472 0.014753 -0.047131 -0.0090785 0.0016614 -0.0069801 -0.026818 0.022151 0.012341 0.025782 0.022802 -0.0038377 -0.014695 -0.018605 0.046229 -0.0071892 0.0048072 -0.026433 0.0011903 0.0024126 0.032532 0.049512 0.025284 0.012667 0.013124 0.022986 -0.037814 0.021787 0.0048246 0.009155 -0.0091669 0.0056176 -0.0026664 0.032465 -0.011513 0.059359 -0.054117 0.034639 0.02792 
户 0.0094345 0.0038664 0.0020068 -0.014644 -0.01158 -0.032518 -0.029707 0.016298 -0.010981 0.038872 0.012236 0.0045419 -0.00053069 -0.025173 0.021101 -0.0044908 -0.012289 0.002482 -0.0066394 0.00063178 -0.0055263 0.0099982 0.00084981 -0.020811 -0.0055293 0.035662 -0.0071653 0.020009 -0.033243 -0.0096593 -0.010212 0.021419 0.048565 -0.0058958 -0.0020097 -0.0068551 0.005543 -0.028228 -0.0013497 0.020683 0.0029297 0.0030694 0.007644 0.015898 0.0037841 -0.014902 0.039092 -0.020673 0.02463 0.026579 
报 -0.0006129 0.053917 0.080326 -0.028207 0.0023661 -0.19671 -0.083545 0.15644 -0.10432 0.14155 0.0748 0.025799 0.086975 -0.19932 0.016779 0.0030594 -0.047184 -0.10635 0.052164 0.071852 0.055499 0.080915 -0.0055737 -0.044079 -0.056111 0.21354 -0.020742 -0.0012389 -0.090309 -0.0017106 0.028764 0.18491 0.22285 0.081829 0.077003 0.032373 0.071782 -0.13936 0.073866 0.020399 0.040532 -0.025365 -0.01438 -0.0071644 0.099259 -0.088813 0.23172 -0.25288 0.15228 0.094385 
基 0.0042663 -0.036374 -0.047815 0.0090723 -0.014783 0.11731 0.045573 -0.085701 0.073673 -0.089166 -0.036763 0.0085178 -0.046107 0.10304 -0.012147 0.0011765 0.024454 0.062291 -0.02536 -0.044395 -0.044102 -0.044353 0.0040909 0.040666 0.027887 -0.11292 0.030085 0.0096546 0.056433 0.028559 0.0053425 -0.11556 -0.12305 -0.056078 -0.041775 -0.026058 -0.058331 0.09163 -0.044262 -0.017545 0.00047827 0.026236 -0.0058727 -0.0019634 -0.063793 0.035373 -0.12307 0.12629 -0.079707 -0.058044 
力 -0.0027661 -0.09929 -0.1316 0.0041206 -0.029264 0.28512 0.14244 -0.25365 0.18076 -0.24869 -0.093021 -0.015858 -0.10286 0.27687 -0.014416 -0.0059002 0.048454 0.16986 -0.10389 -0.10784 -0.074275 -0.14197 0.028042 0.10254 0.069519 -0.27872 0.039837 0.00034778 0.16224 0.029029 -0.025679 -0.27885 -0.31663 -0.14462 -0.092874 -0.076494 -0.13358 0.22807 -0.098538 -0.040101 -0.034798 0.069689 0.0021458 0.031851 -0.16794 0.11787 -0.32702 0.34714 -0.22075 -0.11397 
长 0.00074477 -0.17338 -0.20875 0.027149 -0.059611 0.48421 0.24775 -0.42893 0.29106 -0.42121 -0.17057 -0.028814 -0.20056 0.47909 -0.031326 -0.0081436 0.084492 0.31561 -0.17077 -0.17071 -0.13859 -0.23849 0.063042 0.14288 0.12525 -0.48635 0.087942 -0.0074338 0.26768 0.033427 -0.027592 -0.47063 -0.51984 -0.25567 -0.14616 -0.097636 -0.22 0.40563 -0.20214 -0.056896 -0.067224 0.12901 0.0052057 0.040036 -0.30368 0.19943 -0.53907 0.5963 -0.35231 -0.21412 
日 -0.0048668 -0.010366 -0.0088602 0.010615 -0.0036611 0.044119 0.021837 -0.032448 0.029327 -0.033898 -0.011475 -0.0058775 -0.032286 0.039682 -0.0066767 0.00095598 0.005363 0.023008 -0.022385 -0.011543 -0.01169 -0.026046 0.00095097 0.0059594 0.019445 -0.044903 0.0091484 0.0040607 0.016597 0.0016704 0.00040938 -0.044011 -0.04017 -0.024481 -0.0098491 -0.010443 -0.02262 0.038214 -0.021685 -0.010054 0.0018839 0.010106 0.0035265 0.0053895 -0.030599 0.021195 -0.04108 0.057304 -0.039078 -0.011987 
而 -0.011442 0.065004 0.064414 -0.003793 0.010838 -0.18179 -0.078208 0.13633 -0.091155 0.14277 0.0506 0.0072058 0.068759 -0.17749 0.0024563 0.0031726 -0.023565 -0.09805 0.058895 0.055724 0.049189 0.087904 -0.028521 -0.055142 -0.043157 0.17099 -0.019659 -0.0055146 -0.092972 -0.020419 0.012894 0.18019 0.1947 0.081588 0.043755 0.046844 0.087961 -0.13255 0.049758 0.021292 0.022819 -0.033079 -0.001587 -0.020971 0.089011 -0.062946 0.1825 -0.21455 0.12938 0.07219 
展 0.0047475 -0.086433 -0.098887 0.015587 -0.022237 0.23699 0.11112 -0.20284 0.14831 -0.19806 -0.09888 -0.021697 -0.10299 0.22073 -0.021402 -0.0090212 0.03005 0.15979 -0.092036 -0.091465 -0.069199 -0.118 0.03075 0.070395 0.063709 -0.24414 0.044512 -0.0059117 0.12133 0.012037 -0.0084973 -0.23238 -0.24509 -0.10397 -0.057616 -0.054144 -0.10893 0.17958 -0.082096 -0.032641 -0.028374 0.054434 -0.0010588 0.022497 -0.14315 0.10717 -0.25849 0.29002 -0.1773 -0.1053 
比 0.003899 -0.078421 -0.10221 0.0072618 -0.014807 0.19056 0.10138 -0.17073 0.11349 -0.15991 -0.066713 -0.013117 -0.086379 0.18827 -0.02164 -0.015615 0.023566 0.11721 -0.063084 -0.069565 -0.055766 -0.10279 0.018585 0.059285 0.050627 -0.21124 0.032972 -0.0011912 0.11695 0.027502 -0.012516 -0.20169 -0.2076 -0.093247 -0.063516 -0.046737 -0.092481 0.15002 -0.072724 -0.01892 -0.010854 0.054524 0.0054281 0.011841 -0.12348 0.081856 -0.23697 0.23585 -0.13101 -0.084242 
亿 0.0035862 -0.018883 0.0013231 0.0071289 -0.0037694 0.035057 0.021707 -0.024023 0.0097534 -0.028917 -0.009592 0.0075099 -0.010318 0.029169 -0.0044196 -0.0086513 0.0082972 0.018096 -0.009258 -0.018311 -0.013424 -0.0097214 0.0026633 -0.0026403 0.01004 -0.034825 0.001472 0.0029038 0.018107 0.01301 -0.011155 -0.022924 -0.037905 -0.015735 -0.015111 -0.012801 -0.016412 0.021054 -0.0072269 -0.0062884 -0.0095552 0.013666 0.0061152 -0.00022365 -0.01569 0.0088876 -0.036224 0.036865 -0.04152 -0.012975 
重 0.00084646 0.0088698 0.0043678 -0.001899 -0.009753 5.2582e-06 -0.0015852 -0.014805 0.001249 -0.0082419 0.0096166 0.0047806 -0.0082419 0.0039315 -0.0091477 0.0060817 0.0036525 0.0097423 -0.0009922 0.014785 0.010233 0.0061737 0.0054777 0.0049956 0.0040008 -0.0083903 -0.003955 0.011662 0.0019829 0.0021398 0.0095128 -0.012359 -0.0023671 -0.0030044 -0.0016898 -0.0082388 0.0013266 -0.0059585 -0.011124 0.0033633 -0.0016807 0.0053068 0.0028359 -0.0044535 -0.0034679 -0.00637 -0.011716 0.0095514 -0.0025511 0.0016247 
点 0.0005249 -0.036152 -0.065377 0.011464 -0.0064811 0.13342 0.064612 -0.12867 0.08789 -0.10293 -0.050957 -0.0098733 -0.051987 0.11429 -0.01981 -0.0019091 0.010889 0.074487 -0.037176 -0.060077 -0.036538 -0.080818 0.01822 0.045342 0.034538 -0.12911 0.023002 -0.010081 0.087611 0.016745 -0.011448 -0.13534 -0.14106 -0.064362 -0.041274 -0.038885 -0.068634 0.1018 -0.054784 -0.030508 -0.025477 0.033654 -0.0035538 0.023777 -0.080717 0.065474 -0.14546 0.16871 -0.10624 -0.057924 
生 -0.0028234 -0.031954 -0.037979 0.0067994 -0.0086924 0.075308 0.050191 -0.080231 0.042242 -0.061207 -0.023519 0.00049469 -0.028343 0.081828 -0.0025684 -0.000949 0.011647 0.052684 -0.02986 -0.022616 -0.035041 -0.039894 0.012217 0.02851 0.022112 -0.087512 0.0061813 -0.0031491 0.045673 0.0092353 -0.016678 -0.067834 -0.079377 -0.043719 -0.015954 -0.030456 -0.028685 0.066807 -0.024129 -0.015705 -0.0068671 0.014296 0.00075759 0.013063 -0.044287 0.036127 -0.079473 0.10234 -0.059148 -0.033007 
入 -0.0025832 -0.015341 -0.017532 0.0051275 -0.0052807 0.021912 0.012729 -0.029099 0.022978 -0.030999 0.00010177 0.0015023 -0.012752 0.037565 -0.0077151 -0.0089968 0.013309 0.016406 -0.01796 -0.0062069 -0.0076002 -0.019065 -0.0053932 0.010851 0.0067671 -0.031332 -0.0017946 -0.0015131 0.023109 0.0066595 0.00047221 -0.032259 -0.031759 -0.013259 -0.015921 -0.0048947 -0.014948 0.01497 -0.016785 -0.015006 0.0015168 0.011085 0.0063748 0.0069511 -0.018873 0.023248 -0.031484 0.040492 -0.013799 -0.016397 
度 -0.0059651 -0.052035 -0.02456 0.016118 -0.0037269 0.089704 0.046197 -0.083973 0.057978 -0.082172 -0.040318 -0.012586 -0.040572 0.10287 -0.01887 -0.0033274 0.016432 0.048424 -0.037417 -0.028723 -0.029841 -0.049795 0.0092784 0.029681 0.044551 -0.1091 0.0097726 0.006397 0.060146 0.021662 -0.0098934 -0.090676 -0.095954 -0.049367 -0.040802 -0.027283 -0.042466 0.078298 -0.041745 -0.018044 -0.0091383 0.017143 0.0081717 0.0070791 -0.069927 0.028113 -0.11964 0.11387 -0.079122 -0.04084 
内 -0.0054443 0.00036336 -0.0016253 0.0020834 -0.002303 -0.0025917 -0.0010599 -0.0010026 -0.0097623 -0.0043072 0.0065982 -0.0011882 0.0044383 0.0024273 -0.0079192 0.0010777 -0.0017976 0.0053352 0.00027886 -0.0061789 -0.0011884 0.004249 -0.00029607 0.0012371 0.0027957 -0.0092085 -0.0034755 -0.0061255 0.012313 0.0067671 -0.0013592 0.0073593 0.0087586 -0.0099739 0.0018781 0.0050943 0.0016928 -0.0117 -0.0063129 0.013411 0.0063256 -0.00021198 -0.010432 0.0073877 -0.014998 -0.010006 0.0033233 -0.0023776 -0.0024405 -0.0023883 
券 0.012037 -0.022181 -0.044344 -0.0013281 0.0046853 0.0898 0.04571 -0.080647 0.04697 -0.086765 -0.040093 -0.0019522 -0.0449 0.097272 -0.017114 -0.0050133 0.011271 0.055202 -0.022458 -0.042693 -0.023792 -0.039882 0.012041 0.04138 0.011578 -0.10563 0.026442 -0.012801 0.040814 0.027046 0.005124 -0.095364 -0.09248 -0.041963 -0.018291 -0.012299 -0.032934 0.06518 -0.039276 -0.01975 -0.01642 0.02641 0.0030847 0.0081942 -0.065858 0.036 -0.083665 0.10242 -0.063215 -0.027378 
面 -0.0071604 -0.004213 0.0072939 0.012021 0.0017846 -0.0062634 -0.005187 0.023019 -0.017291 0.0064193 0.0095945 -0.005267 0.0063552 -0.016686 -0.0020847 0.0018873 0.0027345 -0.00036241 -0.0074478 0.0087649 0.0012725 0.010121 -0.0067906 -0.007608 0.0026551 0.0086244 0.00018937 0.0015475 -0.0055134 0.00047248 0.0038549 0.0056741 0.015693 -0.0083686 0.0070244 0.011749 0.017788 -0.012285 0.0051871 -0.012268 0.010065 0.0048719 -0.011823 0.0069219 0.0057652 -0.017172 0.0089381 -0.010501 0.01175 0.01186 
p -0.0056367 -0.046172 -0.067501 -0.0051133 0.0026997 0.13471 0.070276 -0.11965 0.10553 -0.12029 -0.045909 0.0050763 -0.048272 0.13887 -0.017507 -0.0027672 0.014231 0.088682 -0.059431 -0.054752 -0.045077 -0.076114 0.020161 0.051243 0.029954 -0.15007 0.035623 0.0093331 0.089972 0.013062 -0.0029056 -0.13582 -0.15796 -0.074644 -0.044173 -0.043709 -0.06775 0.12057 -0.063859 -0.01596 -0.021406 0.032283 0.0070115 0.0050929 -0.094769 0.045267 -0.17451 0.19312 -0.10719 -0.056166 
与 0.0054349 -0.01852 -0.019135 -0.0053998 0.0047296 0.01668 0.014497 -0.016497 0.0086339 -0.015301 -0.0047234 -0.0026259 -0.017445 0.024807 0.0070955 0.001392 0.00059706 0.021834 -0.00026793 -0.0067049 -0.0085899 -0.0088928 0.0059787 0.016506 0.011841 -0.029805 0.0041631 -0.0064689 0.02039 0.0065556 0.00088677 -0.025953 -0.037398 -0.019549 -0.0037984 -0.00072178 -0.0017381 0.015062 -0.0083288 -0.01007 -0.002336 -0.0057653 -0.0016828 0.0036235 -0.015874 0.0062161 -0.032262 0.041023 -0.010054 -0.0099323 
持 -0.0089311 -0.13217 -0.16552 0.0042738 -0.028175 0.36022 0.20841 -0.32796 0.25338 -0.32203 -0.13219 -0.017734 -0.16488 0.3602 -0.036374 -0.0096766 0.063267 0.25339 -0.14206 -0.1251 -0.12454 -0.1967 0.040519 0.14306 0.10001 -0.40056 0.069033 0.0041506 0.22656 0.04583 -0.020035 -0.38619 -0.44173 -0.20707 -0.10641 -0.079888 -0.17943 0.3146 -0.14658 -0.068423 -0.044701 0.086347 -0.0017536 0.02962 -0.23848 0.15024 -0.43864 0.47944 -0.28972 -0.17342 
并 -0.010906 0.029211 0.022084 -0.015168 -0.0069932 -0.06422 -0.046046 0.056832 -0.03423 0.071773 0.018763 0.021977 0.039674 -0.056068 0.0061007 0.0066778 -0.0012769 -0.063193 0.040762 0.0098439 0.010629 0.048672 0.00062271 -0.011392 -0.031048 0.096895 -0.016531 0.011467 -0.047459 0.00090197 0.021383 0.069063 0.09962 0.053703 0.030097 0.026233 0.04021 -0.043327 0.023195 0.013484 0.0018311 -0.029611 -0.019578 0.011085 0.035227 -0.04003 0.10305 -0.078051 0.047993 0.02871 
品 -0.0173 0.017818 0.00883 0.0053817 -0.0054369 -0.040463 -0.018376 0.037939 -0.031951 0.02971 0.01277 0.0027782 0.019749 -0.044181 0.013601 0.00095197 -0.0085003 -0.016539 0.017998 0.029362 0.014841 0.015365 -0.0010021 -0.023371 -0.0083198 0.049812 -0.0063346 0.015344 -0.017025 0.0098873 0.0097338 0.035444 0.040338 0.020324 0.0096913 0.020744 0.02016 -0.042236 0.0049477 0.0020464 0.0087272 -0.016859 0.012523 0.0049934 0.02641 -0.0046402 0.055829 -0.067121 0.035337 0.035398 
增 0.0091495 -0.073513 -0.090812 0.01898 -0.019299 0.21026 0.10302 -0.19849 0.14538 -0.17834 -0.083876 -0.012691 -0.097567 0.21593 -0.024207 -0.014642 0.037527 0.14573 -0.066533 -0.078719 -0.074763 -0.11241 0.032851 0.071858 0.062217 -0.23164 0.032993 0.0086167 0.11807 0.020398 -0.017428 -0.21897 -0.25267 -0.10386 -0.064837 -0.049657 -0.11336 0.16689 -0.093313 -0.028931 -0.03927 0.047057 -0.0030035 0.022302 -0.13125 0.091525 -0.24198 0.27504 -0.1718 -0.099621 
地 0.013047 -0.071124 -0.068078 0.0076694 -0.016568 0.17507 0.078014 -0.14812 0.10855 -0.15806 -0.060995 0.0023185 -0.087055 0.17802 -0.0069683 -0.010147 0.01901 0.12874 -0.067105 -0.07078 -0.066303 -0.087649 0.010709 0.061042 0.055787 -0.18965 0.039563 -0.019739 0.10118 0.0054353 -0.026907 -0.17271 -0.18899 -0.098138 -0.056036 -0.055486 -0.098663 0.15097 -0.067985 -0.038127 -0.020303 0.031503 0.00045152 0.0039229 -0.11151 0.081507 -0.20814 0.21814 -0.12509 -0.080494 
将 0.0039123 -0.067847 -0.077863 -0.011889 -0.0212 0.13153 0.067242 -0.12038 0.09138 -0.14309 -0.036572 0.0031741 -0.079561 0.13113 -0.032824 -0.00049091 0.014494 0.095139 -0.034344 -0.055086 -0.043492 -0.065392 0.017153 0.037487 0.051106 -0.14254 0.043086 0.0081752 0.10476 0.015606 -0.0073639 -0.16223 -0.16978 -0.079703 -0.041774 -0.033369 -0.075478 0.12427 -0.05205 -0.013375 -0.011783 0.024291 -0.011485 0.02045 -0.086093 0.079637 -0.17358 0.20387 -0.095024 -0.04629 
限 0.0035862 0.003851 -0.0086157 0.0004664 0.00019454 0.020709 0.013612 -0.024259 0.012937 -0.019894 -0.0093138 -0.0010457 -0.0096858 0.015966 -0.0061525 0.00030254 -0.0067681 0.0071742 -0.020638 -0.0058838 -0.015802 -0.014547 -0.0054679 0.0033919 0.0010398 -0.010498 0.0090531 0.0040482 0.0081113 -0.0006322 -0.002579 -0.020079 -0.021196 -0.018108 -0.0036515 -0.010502 -0.013222 0.0093057 -0.0046042 -0.0071873 -0.0089402 -0.0040999 0.003367 -0.006276 -0.0071632 0.0075253 -0.014295 0.011591 -0.022169 0.006322 
创 0.0032184 -0.069456 -0.11157 0.013154 -0.03313 0.23681 0.10611 -0.21266 0.14416 -0.1759 -0.092189 -0.023057 -0.11431 0.21129 -0.028944 -0.0042291 0.042248 0.13703 -0.084276 -0.092178 -0.086991 -0.11178 0.038746 0.091792 0.079758 -0.24514 0.038804 0.0039513 0.1164 0.016535 -0.021858 -0.21914 -0.26024 -0.12752 -0.080644 -0.034365 -0.10558 0.19158 -0.10044 -0.020763 -0.016541 0.068999 0.017655 0.038417 -0.13291 0.10409 -0.27674 0.29935 -0.18713 -0.099447 
支 0.010676 -0.050771 -0.079501 0.0069164 -0.01983 0.17279 0.095263 -0.14965 0.099462 -0.12848 -0.052941 -0.029827 -0.068916 0.16313 -0.027429 -0.0086083 0.034357 0.1241 -0.048718 -0.064614 -0.053567 -0.080504 0.022963 0.06443 0.047946 -0.17589 0.029884 -0.010785 0.092907 0.017665 -0.0028674 -0.15767 -0.19236 -0.08776 -0.058667 -0.042431 -0.094623 0.14703 -0.057314 -0.027705 -0.018227 0.040217 0.015845 0.020823 -0.090652 0.074147 -0.20163 0.22616 -0.13037 -0.070124 
示 -0.00077437 0.086879 0.094365 -0.016075 0.0079395 -0.21795 -0.12779 0.19907 -0.14789 0.18915 0.073943 0.018612 0.10278 -0.20751 0.0060162 0.01052 -0.033723 -0.14745 0.086812 0.068843 0.077992 0.10556 -0.01916 -0.073618 -0.080216 0.23767 -0.058242 -0.0021797 -0.11609 -0.036278 0.012262 0.21554 0.25717 0.11563 0.068555 0.044605 0.10169 -0.1841 0.086559 0.020673 0.03297 -0.055116 0.0086205 -0.010126 0.13797 -0.092919 0.25022 -0.26054 0.16375 0.10267 
被 -0.011003 0.19652 0.27155 -0.016515 0.062925 -0.59337 -0.32605 0.52702 -0.38981 0.5222 0.24333 0.043165 0.26448 -0.59401 0.066428 0.044341 -0.083178 -0.37929 0.1758 0.22733 0.20392 0.30389 -0.070509 -0.18635 -0.1615 0.63607 -0.095061 0.0037031 -0.35913 -0.084274 0.038899 0.59549 0.66894 0.29798 0.17827 0.13638 0.28584 -0.49046 0.24873 0.081567 0.070587 -0.13921 -0.017127 -0.06964 0.34746 -0.2637 0.68665 -0.74963 0.4589 0.25205 
之 0.0061075 -0.034105 -0.031411 0.016566 0.0059721 0.06822 0.035977 -0.064437 0.062836 -0.073241 -0.020169 -0.00012009 -0.047474 0.071513 -0.0039826 0.0024071 0.021787 0.048539 -0.026504 -0.02378 -0.027038 -0.046025 0.0093393 0.020406 0.029384 -0.07418 -0.0013863 -0.0021487 0.045918 0.0039092 -0.01247 -0.066996 -0.083232 -0.034787 -0.0044132 -0.014016 -0.045554 0.059529 -0.037619 -0.0039844 -0.014712 0.0059007 -0.0090164 -0.0082891 -0.050951 0.016115 -0.08159 0.10012 -0.064683 -0.043483 
额 0.0037213 -0.044396 -0.052192 0.0082678 -0.010901 0.1304 0.076686 -0.1098 0.083447 -0.10166 -0.028946 -0.0096996 -0.054793 0.12777 -0.0256 -0.0096482 0.029331 0.085984 -0.032718 -0.04635 -0.03699 -0.061163 0.025887 0.035572 0.032975 -0.12731 0.024569 -0.0082278 0.068893 0.015876 -0.018538 -0.13695 -0.12788 -0.075552 -0.054698 -0.031877 -0.058711 0.10718 -0.051792 -0.029505 -0.010902 0.010158 -0.002295 0.022902 -0.079895 0.056558 -0.14766 0.16088 -0.081971 -0.061608 
付 0.00020301 0.094773 0.074472 0.0021738 -0.00049541 -0.212 -0.12492 0.19113 -0.14183 0.16991 0.059911 0.033561 0.088632 -0.19078 0.029079 -0.0052571 -0.042793 -0.12929 0.071717 0.090678 0.066553 0.11249 -0.016315 -0.059474 -0.072357 0.2201 -0.036896 -0.0042789 -0.11843 -0.0044383 0.013538 0.21994 0.25193 0.095542 0.074987 0.062263 0.089191 -0.17618 0.073278 0.045496 0.028889 -0.050095 0.0036678 -0.032071 0.13934 -0.09636 0.23221 -0.26975 0.15812 0.10098 
此 0.0060957 0.024338 0.033583 -0.011838 -0.00068017 -0.071684 -0.021601 0.04742 -0.044191 0.042836 0.018388 0.012586 0.017305 -0.060255 0.00039256 -0.0097077 -0.014704 -0.034962 0.017052 0.028049 0.012203 0.026653 -0.0028072 -0.020636 -0.011783 0.047176 -0.019812 -0.0011688 -0.04964 -0.0017758 -0.0055873 0.046689 0.073105 0.049254 0.021804 0.010816 0.021831 -0.057608 0.039084 0.020956 0.019648 -0.011102 -0.0060084 0.01037 0.03922 -0.027599 0.06938 -0.073452 0.032848 0.027231 
如 0.00082033 -0.031563 -0.035776 0.001652 0.00035989 0.078789 0.042286 -0.083536 0.055215 -0.071488 -0.03362 -0.0049946 -0.042306 0.080648 0.00050189 -0.007701 0.01467 0.048519 -0.027837 -0.025903 -0.026322 -0.049287 0.012708 0.031788 0.023487 -0.091423 0.010769 -0.0048856 0.053317 0.013831 -0.0078043 -0.081022 -0.1028 -0.054978 -0.024445 -0.012298 -0.044483 0.066276 -0.036561 -0.015601 -0.013676 0.023178 -0.0037112 0.012091 -0.057481 0.040917 -0.10208 0.10542 -0.063554 -0.035406 
三 0.0077007 0.012834 0.009656 -0.0071882 0.008217 -0.023793 -0.013733 0.020527 -0.012355 0.011982 -0.0015933 0.00018546 0.0083629 -0.025185 -4.4705e-05 0.004399 -0.00060657 -0.012676 0.0083022 0.015836 0.0042814 0.0067367 -0.0044239 0.0051347 -0.0097452 0.021682 -0.0020072 0.0032789 -0.0050311 0.0012668 0.0026781 0.022057 0.037428 0.0061159 0.0069793 0.011168 0.018064 -0.023765 0.014366 -0.0034002 0.0047357 0.00063071 0.0036522 -0.0027766 0.020482 -0.01311 0.02292 -0.022856 0.0070529 0.0056962 
相 0.0013182 0.0046398 0.0037598 0.005102 -0.0028116 -0.0066579 -0.011491 0.0058829 -0.0051584 0.012111 -0.0014076 -0.001327 -0.0004696 -0.0012246 0.0063899 -0.00020867 0.0085178 0.0016562 -0.0026466 0.00077134 -0.0033707 0.015073 -0.0036794 0.0034063 0.0046661 0.015809 0.0036248 0.00015751 0.0032261 0.0025248 -0.0092856 0.0041618 3.0109e-05 -0.011948 -0.0033557 -0.010811 -0.0041671 -0.0063118 -0.00099946 0.0063279 0.0010975 0.0031217 0.0020769 0.0002648 0.010953 -0.0051903 0.010303 -0.0079951 -0.0059545 0.01073 
3 0.0051007 0.14349 0.14727 -0.023122 0.019653 -0.34702 -0.19149 0.29952 -0.22668 0.30238 0.13441 0.036014 0.13175 -0.33835 0.04691 0.02504 -0.057765 -0.23579 0.12114 0.13005 0.099112 0.1716 -0.033773 -0.12455 -0.10736 0.37603 -0.057 0.0045816 -0.18617 -0.055631 0.031394 0.35392 0.40351 0.18985 0.10097 0.090027 0.1612 -0.28451 0.14272 0.052809 0.022844 -0.068886 -0.0011829 -0.036374 0.22949 -0.13849 0.42675 -0.4509 0.24928 0.14138 
权 -0.0014091 0.016993 0.016275 -0.0011266 -0.0089029 -0.032681 -0.027276 0.027542 -0.023017 0.02715 0.015173 -0.010038 0.027371 -0.033229 0.0006115 -0.0064228 0.0017131 -0.013672 0.011961 0.0086944 0.016972 0.023622 0.0027867 -0.019959 -0.017291 0.032505 -0.0085852 0.0035091 -0.014729 -0.010631 0.014943 0.0379 0.048545 0.0024015 0.0085681 -0.00083558 0.018551 -0.032481 0.012918 -0.0053161 0.0036575 -0.020879 0.017527 -0.0049308 0.029479 -0.014763 0.042862 -0.043609 0.01371 0.023387 
最 -0.0044541 -0.00060312 -0.012069 0.0048648 -0.00075897 0.010923 0.0051635 -0.022674 -0.0033683 -0.023768 -0.0076933 0.0007551 -0.0079063 0.020489 0.00042296 -0.0061037 0.0031214 0.0073783 -0.0012864 -0.017892 -0.003258 -0.018668 0.010947 -0.0011273 0.0088788 -0.021666 -0.0062513 -0.0022017 0.0085575 0.0085883 -0.00068474 -0.015025 -0.016243 -0.0049555 -0.0038376 -0.0066858 -0.010648 0.014457 -0.0035589 0.0041559 -0.0054544 0.012424 0.0079533 0.0037348 -0.018382 0.013937 -0.021169 0.031084 -0.013647 -0.016903 
加 -0.0048361 -0.044619 -0.04967 0.014471 -0.012964 0.094824 0.041333 -0.081349 0.040089 -0.073417 -0.037142 -0.015296 -0.055418 0.085201 -0.0095597 -0.0031754 0.017799 0.058813 -0.019721 -0.039177 -0.029629 -0.053809 0.0069185 0.041027 0.029625 -0.09602 0.016442 0.0077774 0.053474 0.00090952 -0.0017443 -0.093552 -0.08201 -0.047037 -0.031647 -0.028752 -0.03693 0.069981 -0.033694 -0.020646 -0.0090557 0.020967 -0.010061 0.010597 -0.057046 0.033984 -0.097797 0.11959 -0.0774 -0.048287 
们 -0.0070361 0.0040935 0.014775 -0.0015613 0.008239 -0.030279 -0.029226 0.036246 -0.033873 0.032185 0.011007 0.0019923 0.013126 -0.037075 -0.0027138 0.0022825 -0.014236 -0.024579 0.014736 0.012829 0.011878 0.025947 -0.0012988 -0.010337 -0.018436 0.041781 -0.0080443 0.0031275 -0.019444 -0.0032892 0.013313 0.043648 0.042878 0.028356 0.020051 0.0036082 0.013002 -0.029009 0.014218 0.0051681 -0.0008081 -0.01107 -0.0010989 -0.010481 0.032807 -0.011235 0.046569 -0.050963 0.032577 0.019589 
美 -0.0086767 0.00070805 -0.0080347 -0.0048894 0.0049701 -0.0114 0.0041431 -0.00012414 -0.0022809 -0.012539 -0.0026404 -0.0028667 -0.0078348 0.010457 0.002337 -0.015013 0.0073072 0.0054907 0.0033972 5.892e-06 0.0041965 -0.00049753 0.0013437 -0.0041942 0.00078483 -0.0066705 0.00099978 -0.0014988 0.0014467 0.012783 -0.004492 -0.00603 -0.020119 -0.0010868 -0.0095215 -0.0037649 -0.014916 0.0070496 -0.0069055 -0.0062303 0.0082294 0.0015527 -0.0044248 0.0038761 -0.0065093 -0.0051095 -0.0067416 7.3388e-05 -0.0020894 -0.0043549 
计 0.012837 -0.018957 -0.028547 0.00014285 0.00093595 0.041345 0.032502 -0.035334 0.024873 -0.040157 -0.0099219 -0.0087793 -0.034633 0.04505 -0.0066826 -0.0040099 0.020523 0.011108 -0.015582 -0.0099392 -0.030333 -0.028143 -2.232e-05 0.023034 0.00694 -0.040463 -0.0037658 0.0015844 0.017059 0.0030362 -0.0098699 -0.044483 -0.06245 -0.037965 -0.022831 -0.0072363 -0.0061868 0.021437 -0.01992 -0.0067203 0.005539 0.014859 0.0041099 0.019323 -0.020874 0.028721 -0.05491 0.062619 -0.043122 -0.023954 
体 0.009182 -0.01483 -0.023046 0.0077056 -0.00293 0.039722 0.019493 -0.030014 0.017928 -0.033487 -0.014309 -0.0052877 -0.020086 0.04113 -0.0091953 -0.00041271 0.0081452 0.033859 -0.02008 -0.011973 -0.022178 -0.027391 0.0010892 0.014307 0.01349 -0.037539 0.009742 -0.0028716 0.008581 0.0088781 -0.0085333 -0.045374 -0.044246 -0.031136 -0.0091962 0.0029963 -0.017169 0.035909 -0.012968 0.0014218 -0.012763 0.010811 0.00014276 0.016674 -0.031781 0.019369 -0.049957 0.047808 -0.03005 -0.018394 
告 -0.0075413 0.042942 0.055617 0.0061177 0.019767 -0.1043 -0.056118 0.096406 -0.059412 0.10033 0.034409 -0.0084082 0.048049 -0.11766 0.011399 0.0034609 -0.027048 -0.053995 0.031066 0.026235 0.030073 0.049624 -0.016458 -0.034914 -0.041471 0.11222 -0.029677 -0.0032716 -0.052985 -0.0086133 0.0023224 0.099713 0.12741 0.054346 0.046433 0.018014 0.055314 -0.070749 0.039859 0.021339 0.014009 -0.015856 0.0067932 -0.013025 0.064104 -0.047319 0.11181 -0.12603 0.087259 0.042129 
表 -0.01316 -0.030032 -0.021367 0.0080649 0.0093133 0.049136 0.019014 -0.040762 0.045854 -0.043723 -0.014294 0.0030736 -0.024464 0.057793 -0.0073877 -0.010382 0.0069387 0.042195 -0.020459 -0.03284 -0.017662 -0.028063 0.011891 0.022442 0.011919 -0.061075 0.011456 0.0067921 0.029632 0.019596 -0.0043202 -0.060977 -0.046617 -0.028344 -0.013631 -0.011615 -0.022397 0.046567 -0.031146 0.0071117 -0.018925 0.014918 0.0014877 0.01309 -0.034851 0.033333 -0.079515 0.074666 -0.03847 -0.032273 
企 0.0067573 -0.0033093 -0.0073549 -0.0001058 0.008374 0.001728 0.0072943 -0.0041705 -0.0022812 -0.0091081 0.0091484 -0.0071362 -0.0010709 0.0034555 0.0074653 -0.0058548 -0.011225 0.0041393 -0.011787 -0.010507 0.0093951 -0.0035163 0.0076204 0.013481 0.0024988 -0.007405 1.0858e-05 0.00029731 -0.001252 -0.012187 0.00039156 -0.0042439 -0.013225 0.0051016 -0.0023408 -0.0064089 -0.0026792 0.0084176 -0.0054236 -0.00030231 -0.0020276 -0.008358 -0.0013564 -2.5023e-05 -0.008646 0.0040866 -0.010101 0.0061298 -0.0018214 -0.0037388 
情 -0.0029038 0.01543 -0.0070035 0.0050743 0.0017696 -0.014583 -0.00025382 0.00027205 0.0016003 0.013742 -0.010516 -0.0078519 0.0039479 -0.0091311 0.0064196 -0.0016997 0.012731 -0.011072 -0.0057596 0.0023066 0.00058014 -0.0061627 -0.0026662 -0.010118 -0.0014286 0.0060592 0.0018253 -0.0087077 -0.00031092 -0.00016415 -0.0015367 0.0029133 0.004953 0.0048514 -0.0014332 -0.0029426 0.0051647 -0.00077585 -0.00078846 -0.0039017 -0.0039445 0.00080472 0.0040339 -0.0042318 -0.0034317 0.0042068 0.002281 -0.018332 0.0063957 0.013597 
明 0.0055003 0.016361 0.019673 -0.0016855 0.003261 -0.038521 -0.023469 0.034937 -0.027968 0.038917 0.0080047 0.0012213 0.011367 -0.044988 0.0085779 -0.0030055 -0.0013488 -0.032043 0.0012714 0.0152 0.019799 0.034128 -0.0041135 -0.021823 -0.016836 0.040441 -0.013289 -0.010005 -0.025257 -0.010126 -0.004167 0.035533 0.030965 0.012444 0.0037874 -0.00075408 0.023039 -0.036115 0.013484 0.0020582 -0.0026805 -0.0063783 -0.00072462 -0.0040455 0.023694 -0.012247 0.040631 -0.045348 0.02954 0.026737 
已 -0.01 0.029073 0.042717 -0.0017348 0.0083978 -0.094979 -0.056344 0.079056 -0.062831 0.08674 0.025065 0.015442 0.047637 -0.077662 0.012098 -0.0070099 -0.02156 -0.056672 0.026928 0.045904 0.033105 0.047643 -0.0042999 -0.040065 -0.016663 0.10056 -0.023058 0.0034848 -0.051992 -0.0037895 0.0063881 0.09414 0.10544 0.047521 0.027421 0.023848 0.03755 -0.072609 0.037991 0.0073888 0.010878 -0.019716 -0.0055661 -0.011147 0.064879 -0.039252 0.10892 -0.11668 0.074655 0.043884 
得 -0.0011588 -0.02926 -0.041291 0.011793 -0.012177 0.082535 0.050795 -0.06664 0.043667 -0.064053 -0.029683 -0.0044572 -0.028058 0.080084 -0.0032281 -0.0003676 0.012377 0.041837 -0.022135 -0.030119 -0.010144 -0.028874 -0.0015658 0.023802 0.015985 -0.064383 0.012915 0.0047207 0.040893 0.012771 -0.0054986 -0.063227 -0.080883 -0.035816 -0.014094 -0.029187 -0.029864 0.071692 -0.035376 -0.020334 -0.006911 0.034902 0.0010167 0.0071068 -0.051949 0.03424 -0.070309 0.095033 -0.052773 -0.026902 
都 -0.019088 0.029424 0.041485 0.0038978 0.02385 -0.11536 -0.083537 0.1326 -0.09068 0.11493 0.048061 0.024488 0.04614 -0.13525 0.011431 0.010028 -0.0079826 -0.071153 0.040563 0.028033 0.024205 0.065506 -0.0017757 -0.032299 -0.054491 0.12116 -0.032791 0.019169 -0.082083 -0.012609 0.0040322 0.14471 0.14188 0.068592 0.034876 0.044278 0.071478 -0.11052 0.049529 0.035983 0.024187 -0.029167 -0.004031 -0.018704 0.090608 -0.067211 0.16313 -0.18247 0.11044 0.077218 
制 0.00016287 -0.027684 -0.036953 0.0062478 -0.00089479 0.079063 0.047763 -0.074245 0.04644 -0.062834 -0.029522 -0.0021386 -0.0325 0.078071 0.0039009 -0.014034 0.021978 0.042959 -0.027332 -0.03718 -0.025548 -0.043995 0.012781 0.031815 0.032047 -0.083232 0.023345 -0.014193 0.046345 0.015717 -0.014435 -0.079714 -0.091731 -0.039303 -0.029191 -0.025205 -0.054333 0.066018 -0.031023 -0.013228 -0.014104 0.014319 0.0059948 0.011898 -0.044698 0.033343 -0.09666 0.10265 -0.054108 -0.026489 
间 0.01706 -0.00095457 0.006301 0.013859 -0.0024079 -0.017219 -0.022983 0.012571 -0.010804 0.0080612 0.014632 0.00056481 -0.0043394 -0.024056 0.0065097 0.014369 -0.004967 -0.0042659 0.010898 -0.0055439 0.017374 0.00027822 0.0052953 0.0022529 0.0022595 0.0064862 0.001127 0.0028541 -0.016553 0.01377 -0.0018405 0.0068684 -0.002465 -0.011895 -0.006752 -0.012714 -0.010266 -0.010467 0.010204 -0.0024024 0.01108 -0.0097917 0.010798 -0.010741 0.012433 -0.0010494 0.023221 -0.019335 0.018787 0.0070492 
借 0.0018332 0.0010502 -0.0056204 -0.0001608 3.6401e-05 -0.012718 -0.0070098 0.0046839 -0.011655 0.0094798 0.012781 -0.007148 0.0096678 0.00068088 -0.0077742 0.0037362 -0.003282 -0.00043763 0.0035721 0.0059831 0.018939 0.0042673 0.0076406 -0.0025086 -0.0060987 0.0097763 -0.008527 -0.0035012 0.00078913 -0.015623 -0.011379 -0.011068 -0.009477 0.0091499 -0.0004249 0.0031915 -0.0076677 0.0078715 0.0084929 -0.0063462 -0.0026245 -0.0080501 -0.0024295 -0.0053056 0.0075017 -0.0166 0.0078349 0.0051539 -0.0092585 -0.0034504 
看 -0.0011421 0.023311 0.027952 -0.008796 0.0018561 -0.046944 -0.03559 0.054256 -0.032498 0.027318 -0.00064194 0.0081826 0.019865 -0.042049 -0.012777 0.0025501 0.013498 -0.037201 0.0047174 0.0099124 0.028802 0.0034048 -0.01967 -0.013835 0.0052877 0.034487 -0.015541 -0.012255 -0.0059949 0.013031 -0.0069586 0.038734 0.052138 0.014755 0.022392 0.0027498 0.010667 -0.033746 0.014722 -0.010692 0.0007582 -0.023272 0.00026457 -0.0080557 0.0434 -0.010152 0.065717 -0.050534 0.04629 0.0045323 
第 0.0034037 0.06354 0.060506 -0.0060534 0.021084 -0.16801 -0.08771 0.15095 -0.11197 0.14758 0.07123 0.0091584 0.076175 -0.15557 0.017283 0.003996 -0.018068 -0.10627 0.05553 0.073107 0.047629 0.10083 -0.024505 -0.058309 -0.049122 0.19433 -0.02616 0.012799 -0.094364 -0.024586 0.023251 0.17328 0.1903 0.0976 0.042081 0.046606 0.090419 -0.13752 0.059679 0.02422 0.035113 -0.041377 0.0046232 -0.031723 0.11835 -0.06531 0.20745 -0.23261 0.12798 0.080405 
小 -0.0091465 0.063001 0.062122 0.0052057 0.019684 -0.13168 -0.076545 0.13634 -0.09839 0.12811 0.052217 -9.8951e-05 0.066502 -0.14122 0.011477 0.011888 -0.015977 -0.094662 0.047164 0.056309 0.037814 0.06022 -0.031577 -0.043776 -0.046349 0.15395 -0.024372 0.0011696 -0.097653 -0.026861 0.006954 0.14499 0.153 0.082841 0.041384 0.037123 0.062731 -0.11596 0.065333 0.0087529 0.015823 -0.016798 -0.012637 -0.020247 0.080198 -0.051245 0.17051 -0.16688 0.1098 0.060242 
东 0.018951 -0.045711 -0.034582 0.023766 0.002508 0.07754 0.043465 -0.077546 0.064094 -0.07012 -0.024535 -0.010147 -0.05399 0.069982 -0.0044139 -0.023083 -0.00050558 0.071308 -0.021779 -0.019521 -0.023564 -0.022398 0.01183 0.020328 0.0042585 -0.091711 0.0077811 -0.013521 0.062117 0.019849 0.005956 -0.072295 -0.10342 -0.050969 -0.033513 -0.0029606 -0.058706 0.078827 -0.036339 -0.022784 -0.012265 0.035279 0.0088518 -0.0097411 -0.062265 0.030998 -0.090572 0.091925 -0.079757 -0.037823 
构 -0.00038717 -0.063431 -0.067577 0.013599 -0.015799 0.13951 0.092477 -0.12682 0.072943 -0.1168 -0.057147 -0.0013126 -0.057043 0.12166 -0.0030471 -0.022627 0.023952 0.08503 -0.062738 -0.067386 -0.058904 -0.081525 0.012284 0.055919 0.026411 -0.15424 0.026239 -0.018436 0.068208 0.0094222 -0.023719 -0.15097 -0.16952 -0.083834 -0.023234 -0.04036 -0.085065 0.11711 -0.050596 -0.021803 -0.018331 0.045828 -0.0109 0.010874 -0.1045 0.075522 -0.1666 0.18119 -0.096926 -0.059916 
性 -0.0054265 -0.013713 -0.022169 0.0006577 0.001753 0.057564 0.027361 -0.05114 0.036598 -0.044789 -0.029458 -0.003766 -0.021587 0.050437 -0.0042709 -0.006406 0.019675 0.033895 -0.022945 -0.025314 -0.0098891 -0.033046 0.012272 0.021469 0.013748 -0.05673 0.0069496 -0.0046336 0.030881 0.013061 -0.012723 -0.046941 -0.060891 -0.023704 -0.009472 -0.010991 -0.028947 0.044383 -0.031192 -0.009608 0.0025732 0.012964 0.011253 -2.852e-05 -0.034409 0.016122 -0.06294 0.068327 -0.050192 -0.018746 
化 -0.00074453 -0.15998 -0.20029 0.023846 -0.024205 0.49356 0.2764 -0.44154 0.33057 -0.44637 -0.19804 -0.040423 -0.20129 0.46871 -0.062015 -0.018522 0.087675 0.33567 -0.15387 -0.19272 -0.1547 -0.24368 0.050402 0.16242 0.16046 -0.52302 0.10974 -0.017542 0.30022 0.054688 -0.035332 -0.50057 -0.55245 -0.25255 -0.1496 -0.1027 -0.23495 0.42333 -0.19902 -0.089415 -0.063402 0.10116 0.02902 0.041406 -0.30076 0.20562 -0.60286 0.64237 -0.36553 -0.20684 
主 -0.0022866 -0.016569 -0.02121 -0.0010309 -7.5559e-05 0.054287 0.03524 -0.053058 0.045607 -0.050446 -0.019799 0.0036858 -0.024041 0.059937 -0.0026631 -0.0089275 0.0094078 0.034994 -0.024515 -0.029114 -0.028205 -0.023376 0.00019772 0.015498 0.01818 -0.065286 0.0092329 -0.0002085 0.037172 -0.0018854 -0.0046659 -0.055147 -0.071101 -0.034207 -0.014599 -0.021824 -0.027422 0.048391 -0.021369 -0.0020727 -0.005588 0.019735 -0.00034527 0.012089 -0.032115 0.028779 -0.068561 0.091121 -0.050355 -0.037374 
但 0.00049929 0.085841 0.092431 -0.011229 -0.0023574 -0.20198 -0.1117 0.17923 -0.12047 0.17149 0.065868 -0.0014452 0.086645 -0.18988 0.018884 0.0057713 -0.046168 -0.12633 0.076192 0.085464 0.075457 0.097386 -0.035231 -0.079452 -0.070699 0.20872 -0.02083 5.0466e-05 -0.10742 -0.012766 0.028139 0.20161 0.21798 0.097258 0.070457 0.027429 0.073163 -0.15765 0.079923 0.014905 0.017572 -0.046372 -0.024219 -0.029571 0.12973 -0.062531 0.22732 -0.25871 0.15808 0.088695 
项 -0.0013619 -0.010719 -0.0073784 0.0066187 0.012903 0.022326 0.0089652 -0.016448 0.021302 -0.02405 -0.0049028 -0.005642 -0.007797 0.029441 -0.00096604 0.0037215 0.0067527 0.0025201 -0.014956 -0.0056193 -0.0026787 -0.01265 -0.00030852 0.014398 0.017062 -0.011379 0.0052575 -0.0053532 0.016729 0.0016451 0.00056007 -0.027243 -0.012102 -0.0076467 -0.0091744 -0.0054968 -0.018014 0.020102 -0.016773 -0.0050004 -0.0031603 -0.0069637 0.0020644 0.0081081 -0.01536 0.015507 -0.025157 0.020659 -0.020447 -0.014462 
天 -0.0073808 0.027941 0.021022 0.0061491 0.0052834 -0.053732 -0.017425 0.030358 -0.027363 0.036136 0.025584 0.0061963 0.024533 -0.044903 0.00036993 0.0055224 -0.0089878 -0.037195 0.01368 0.015571 0.012283 0.025484 0.0045439 -0.0084702 -0.016812 0.052002 -0.019103 -0.0069268 -0.025439 0.0034347 0.0013521 0.040029 0.049591 0.028924 0.012043 0.00090006 0.025728 -0.038497 0.0078071 0.014315 0.016035 -0.021155 -0.00031485 -0.0010256 0.02595 -0.019212 0.0574 -0.055213 0.049105 0.016613 
存 -0.0097848 0.029288 0.03217 -0.0145 0.0077475 -0.083829 -0.049736 0.096705 -0.066259 0.076203 0.039437 0.0064086 0.044704 -0.09943 -0.0014535 -0.0033879 -0.018729 -0.057048 0.024929 0.051073 0.036559 0.039496 -0.0070565 -0.030809 -0.033675 0.11165 -0.018056 0.0079857 -0.063044 0.0014841 0.011611 0.10442 0.12591 0.049718 0.015538 0.0176 0.059027 -0.075267 0.031351 0.026449 0.010491 -0.022976 -0.0088696 -0.00041444 0.074699 -0.036957 0.11681 -0.11766 0.079205 0.034587 
次 0.015294 -0.056667 -0.058919 -0.003043 -0.0007829 0.15315 0.087629 -0.12743 0.092837 -0.11441 -0.045738 -0.0060458 -0.065463 0.15346 -0.01354 -0.018089 0.0086431 0.094342 -0.038027 -0.06512 -0.034081 -0.086328 0.020076 0.051962 0.047876 -0.15743 0.033361 0.00052394 0.069583 0.0076213 -0.01292 -0.15229 -0.17296 -0.059399 -0.051227 -0.024133 -0.05882 0.11125 -0.060481 -0.010201 -0.020751 0.032896 0.0070308 0.0116 -0.075589 0.046038 -0.17309 0.1824 -0.1122 -0.050031 
价 0.0040938 -0.040079 -0.058678 -0.0027884 -0.014181 0.12757 0.071305 -0.11017 0.097593 -0.11998 -0.056465 -0.0080057 -0.068331 0.13227 -0.0091678 0.011474 0.023818 0.083392 -0.0521 -0.053374 -0.044423 -0.068857 0.0075311 0.046341 0.031359 -0.13309 0.016623 0.00035593 0.081709 0.020957 -0.011543 -0.14432 -0.15032 -0.072233 -0.042615 -0.02577 -0.072465 0.1168 -0.045819 -0.01567 -0.018653 0.042049 -0.0067357 0.012198 -0.06565 0.048061 -0.15392 0.16995 -0.10733 -0.04819 
安 0.020529 -0.020426 -0.015504 0.011557 0.014716 0.059518 0.038813 -0.045994 0.036338 -0.039023 -0.0092698 -0.0052133 -0.0033751 0.063691 0.00059705 -2.7806e-05 0.020417 0.050609 -0.0047443 -0.016109 -0.025453 -0.036451 0.0039749 0.012981 0.018911 -0.062207 0.017785 -0.0089079 0.035038 -0.0087287 0.0089929 -0.067439 -0.067802 -0.010186 -0.00042365 0.0012365 -0.03382 0.029465 -0.017851 -0.0017311 0.011906 0.014662 0.0099636 -0.00098456 -0.043787 0.0096859 -0.063623 0.07217 -0.056386 -0.029799 
因 0.00025015 0.02096 0.035589 -8.6737e-05 0.012709 -0.069131 -0.043792 0.072462 -0.047879 0.067684 0.032761 0.010755 0.03064 -0.07102 0.0045354 0.0030265 -0.010522 -0.05555 0.032791 0.023452 0.025691 0.04199 -0.01303 -0.020687 -0.028564 0.096974 -0.0053224 0.0068078 -0.05089 -0.015322 0.018078 0.079326 0.086383 0.042787 0.0171 0.0096608 0.033407 -0.070651 0.036651 0.01952 0.0050999 -0.028268 0.0095753 -0.0046035 0.039425 -0.029417 0.094799 -0.097587 0.057128 0.036807 
案 -0.0042297 0.12631 0.15436 -0.0254 0.015007 -0.39756 -0.2173 0.33839 -0.23527 0.321 0.14994 0.032822 0.17527 -0.38275 0.037511 0.019456 -0.059409 -0.24612 0.12375 0.15086 0.13082 0.2092 -0.02989 -0.11218 -0.12072 0.41574 -0.080505 0.0095272 -0.21577 -0.031663 0.026996 0.36981 0.45172 0.21885 0.10933 0.070937 0.18399 -0.33216 0.1664 0.055409 0.043773 -0.091395 0.0080627 -0.042343 0.23115 -0.14065 0.44726 -0.50371 0.29375 0.17914 
外 -0.010821 -0.0054052 -0.023777 0.0072101 -0.0083536 0.033277 0.020449 -0.026113 0.012116 -0.033043 -0.011468 -0.00021014 -0.0072804 0.034941 0.0045236 -0.0028108 0.0057735 0.027167 -0.017301 -0.016629 -0.013971 -0.011259 0.0059078 0.0083565 0.016458 -0.030717 0.012617 -0.00075754 0.015478 0.012872 -0.0090337 -0.025653 -0.03359 -0.021024 -0.016026 -0.0041848 -0.018133 0.022193 -0.018119 -0.010159 0.0043647 0.006791 -0.0014281 -0.0078361 -0.027247 0.015748 -0.038653 0.046959 -0.026692 -0.0055423 
民 -0.0040517 0.0092202 0.0011616 0.0016048 0.0022312 -0.015779 -0.0051113 0.028074 -0.0161 0.027078 0.011482 -0.0025717 0.0054237 -0.022475 0.0047703 0.00251 -0.0083429 -0.021646 0.0044572 0.0010064 0.015893 0.012365 -0.0072469 -0.0029138 -6.2934e-05 0.03334 -0.0023327 0.00012264 -0.016948 -0.005551 0.00033485 0.022097 0.036669 0.017392 0.0065992 0.0022526 0.0059255 -0.014846 0.014158 0.0049072 0.0030121 -0.012817 0.0026669 -0.0010558 0.020952 -0.010383 0.031919 -0.026747 0.02788 0.01779 
单 -0.0022029 -0.01324 -0.0071414 -0.012971 0.013639 -0.00292 -0.00018608 -0.017502 -0.0035907 -0.02901 0.0090463 0.016121 0.010803 0.015198 -0.0085043 0.0049325 -0.012786 0.011991 0.0055458 0.0053747 0.0078281 0.0095032 -0.0083243 -0.0085058 0.024504 -0.028666 -0.015625 0.010581 0.0067015 0.0040742 0.0079381 -0.027972 -0.0085106 0.002194 -0.018891 -0.021446 0.0003374 0.014987 -0.015186 -0.0073297 -0.018986 0.020745 -0.013321 -0.011878 0.0097801 0.025777 -0.023117 0.02474 -0.017191 -0.015619 
5 -0.0075272 0.18442 0.21352 -0.036804 0.044555 -0.50019 -0.27464 0.45965 -0.33998 0.43234 0.19164 0.027563 0.21152 -0.50814 0.037231 0.031739 -0.059552 -0.32868 0.17202 0.19176 0.16236 0.27093 -0.047826 -0.17367 -0.14618 0.53885 -0.098667 0.011691 -0.29082 -0.056601 0.043055 0.52173 0.57253 0.27635 0.15494 0.10845 0.24624 -0.41129 0.19459 0.080347 0.057679 -0.12672 -0.016653 -0.059482 0.32591 -0.20705 0.60516 -0.63925 0.38976 0.21464 
他 -0.0025124 0.020737 0.010482 0.011776 0.0036651 -0.043005 -0.017136 0.034962 -0.017821 0.030336 0.01863 -0.0083231 0.014939 -0.039547 0.0087111 -0.0040201 -0.012129 -0.024058 0.015387 0.017673 0.016985 0.0246 -0.014148 -0.0078732 -0.020573 0.03911 -0.0031904 -0.0093506 -0.023748 -0.012671 0.0056988 0.043683 0.039361 0.02624 0.0062996 0.015531 0.021124 -0.024838 0.0044246 0.0077017 0.00704 -0.0078635 -0.0037143 0.0019428 0.023305 -0.0064128 0.039275 -0.045373 0.028603 0.012049 
从 -0.0018859 -0.0082145 -0.015318 -0.0089506 0.010863 -0.0099656 -0.0066833 0.015591 -0.0058017 0.00229 -0.0021352 -0.003448 0.0048744 -0.015795 0.0097705 0.0079296 0.0049047 -0.011549 -0.0044139 -0.009202 0.0037502 0.0023414 -0.0078779 -0.014232 -0.0032614 0.0017321 0.0069039 -0.0013165 0.0068908 -0.0035762 -0.0045692 0.010213 -0.0037529 0.0097043 -0.010303 0.014253 -0.0015893 -0.00319 -0.007357 -0.0026096 -0.0081277 -0.0098144 0.001414 0.0041622 0.011794 0.0046459 0.004886 0.0020163 0.007658 -0.0054726 
